tree
version=v4
num_class=1
num_tree_per_iteration=1
label_index=0
max_feature_idx=16
objective=regression
feature_names=co2 pm10 temperature humidity noise hour dayofweek month pm25_lag_1 pm25_lag_2 pm25_lag_4 pm25_lag_6 pm25_lag_12 pm25_lag_24 pm25_roll_3 pm25_roll_6 pm25_roll_12
feature_infos=[492:1567] [0:115] [-10:33.200000000000003] [20:90] [30:87] [0:23] [0:6] [1:12] [0:105] [0:105] [0:105] [0:105] [0:105] [0:105] [3:82.666666666666671] [8.6666666666666661:69.833333333333329] [15:63.333333333333336]
tree_sizes=2706 2763 2746 2771 2772 2777 2783 2780 2789 2785 2794 2801 2800 2807 2803 2817 2811 2812 2818 2818 2825 2826 2829 2811 2820 2836 2826 2829 2845 2849 2831 2851 2853 2842 2858 2849 2845 2844 2852 2870 2846 2862 2857 2862 2865 2848 2868 2848 2847 2856 2862 2867 2838 2867 2853 2868 2851 2864 2863 2854 2864 2853 2861 2873 2855 2856 2872 2875 2870 2858 2850 2861 2860 2872 2853 2858 2843 2871 2878 2863 2889 2873 2870 2849 2853 2859 2846 2854 2871 2846 2857 2854 2872 2869 2864 2876 2861 2878 2867 2861

Tree=0
num_leaves=31
num_cat=0
split_feature=1 1 1 1 1 1 1 1 1 1 1 1 14 1 15 14 14 1 1 1 14 1 14 1 1 0 1 1 1 14
split_gain=3.53724e+06 543020 458804 92448.1 90289.8 84077.4 68763.8 15551.7 15482.5 15336.9 15087.1 13965.1 12780.7 11824.7 9430.81 4682.24 4441.73 4045.79 3321.02 3041.96 2951.97 2805.4 2779.22 2364.22 2062.75 1990.77 1928.62 1915.16 1878.62 1871.99
threshold=51.500000000000007 34.500000000000007 68.500000000000014 23.500000000000004 43.500000000000007 82.500000000000014 58.500000000000007 28.500000000000004 74.500000000000014 92.500000000000014 38.500000000000007 16.500000000000004 36.833333333333336 63.500000000000007 33.583333333333336 30.833333333333339 26.166666666666668 47.500000000000007 55.500000000000007 47.500000000000007 27.500000000000004 11.500000000000002 39.166666666666679 85.500000000000014 98.500000000000014 1167.5000000000002 32.500000000000007 20.500000000000004 72.500000000000014 24.500000000000004
decision_type=2 2 2 2 2 2 2 2 2 2 2 2 2 2 2 2 2 2 2 2 2 2 2 2 2 2 2 2 2 2
left_child=1 3 6 11 10 8 14 29 28 23 20 21 19 22 -2 -12 26 -14 -16 -6 -3 -1 -8 -7 -11 -10 -9 -13 -4 -5
right_child=2 4 5 7 12 9 13 16 25 24 15 27 17 -15 18 -17 -18 -19 -20 -21 -22 -23 -24 -25 -26 -27 -28 -29 -30 -31
leaf_value=33.713636559228611 37.409613701167636 35.897848132960704 39.305863971965557 35.061287391845838 36.709592057299496 40.41241806071617 38.01329335863548 35.398692146628889 39.855449117551714 41.549353878003252 36.305342732003389 34.565683679005055 37.064208912965697 38.875882330322987 37.792024491906197 36.619126521177698 35.796629734609127 37.436278805325259 38.108906436165881 37.011564531404801 36.17367007333781 34.224241096048367 38.471350222727111 40.871934630584008 42.288320786800675 40.179406788377264 35.671075827680248 34.846887700136222 39.604728030906912 35.314492599429592
leaf_weight=157 462 863 739 696 860 184 154 739 525 105 1119 458 522 1054 740 827 849 664 598 545 705 342 947 286 59 297 401 514 294 503
leaf_count=157 462 863 739 696 860 184 154 739 525 105 1119 458 522 1054 740 827 849 664 598 545 705 342 947 286 59 297 401 514 294 503
internal_value=37.0718 35.9624 38.9248 35.1494 36.5829 39.9884 38.2554 35.452 39.6486 40.9826 36.2527 34.4936 37.0308 38.6365 37.7991 36.4387 35.6235 37.2725 37.9337 36.8267 36.0219 34.0636 38.4073 40.692 41.8152 39.9725 35.4945 34.7144 39.3909 35.1675
internal_weight=17208 10764 6444 4659 6105 2489 3955 3188 1855 634 3514 1471 2591 2155 1800 1946 1989 1186 1338 1405 1568 499 1101 470 164 822 1140 972 1033 1199
internal_count=17208 10764 6444 4659 6105 2489 3955 3188 1855 634 3514 1471 2591 2155 1800 1946 1989 1186 1338 1405 1568 499 1101 470 164 822 1140 972 1033 1199
is_linear=0
shrinkage=1


Tree=1
num_leaves=31
num_cat=0
split_feature=1 1 1 1 1 1 1 1 1 1 1 16 14 1 1 1 1 14 1 14 1 14 14 1 1 14 1 0 1 0
split_gain=2.86663e+06 474958 337427 97902 62652.9 60651.9 52839.1 20265.2 11097.1 10989.8 10709.7 10405 9604.55 8453.1 5833.01 3940.93 3874.64 3502.53 3103.77 3079.28 2763 2628.29 2579.41 2564.74 2178.71 2170.71 1749.68 1392.62 1303.97 1292.82
threshold=52.500000000000007 36.500000000000007 69.500000000000014 26.500000000000004 44.500000000000007 83.500000000000014 61.500000000000007 17.500000000000004 31.500000000000004 74.500000000000014 94.500000000000014 32.041666666666679 42.500000000000007 40.500000000000007 65.500000000000014 56.500000000000007 21.500000000000004 33.166666666666679 49.500000000000007 26.166666666666668 11.500000000000002 25.500000000000004 33.500000000000007 80.500000000000014 87.500000000000014 30.166666666666668 47.500000000000007 1017.5000000000001 56.500000000000007 913.50000000000011
decision_type=2 2 2 2 2 2 2 2 2 2 2 2 2 2 2 2 2 2 2 2 2 2 2 2 2 2 2 2 2 2
left_child=1 3 6 7 13 9 12 20 21 -4 24 26 25 22 27 -14 -9 -15 -13 -10 -1 -5 29 -11 -7 -2 -6 -8 -27 -3
right_child=2 4 5 8 11 10 14 16 19 23 -12 18 15 17 -16 -17 -18 -19 -20 -21 -22 -23 -24 -25 -26 28 -28 -29 -30 -31
leaf_value=-3.0223191364555606 0.28342718377005721 -0.97421292162537587 2.1370520256753465 -1.6087627686776995 -0.27808117136709243 3.1454525623846497 1.2140843551582905 -2.1911499795804912 -1.2533049880957403 2.534008596844473 4.4428619126142079 0.11758984734941202 0.77819840715967348 -0.56930809293884832 1.7674328720671253 1.1199464796354699 -1.8568992025023126 -0.25506071632535293 0.43162085861085953 -0.99538726033632552 -2.5310900280097979 -1.336129191612047 -0.56059449653535143 2.9082709504291415 3.5910141837003544 0.51731103417889179 -0.03841106658696794 1.4834827235171684 0.83333684919199547 -0.76380203563475879
leaf_weight=157 225 500 837 859 596 218 283 526 952 643 118 734 557 913 821 856 1018 580 551 901 423 601 409 256 221 302 623 596 230 702
leaf_count=157 225 500 837 859 596 218 283 526 952 643 118 734 557 913 821 856 1018 580 551 901 423 601 409 256 221 302 623 596 230 702
internal_value=-2.82853e-09 -0.964127 1.72786 -1.63012 -0.318442 2.68913 1.15829 -2.16009 -1.29035 2.39781 3.59709 0.0537011 0.831243 -0.618651 1.57577 0.985231 -1.97077 -0.447229 0.252244 -1.1279 -2.66406 -1.49653 -0.777516 2.64058 3.36976 0.543813 -0.155592 1.39675 0.653939 -0.851327
internal_weight=17208 11045 6163 5437 5608 2293 3870 2124 3313 1736 557 2504 2170 3104 1700 1413 1544 1493 1285 1853 580 1460 1611 899 439 757 1219 879 532 1202
internal_count=17208 11045 6163 5437 5608 2293 3870 2124 3313 1736 557 2504 2170 3104 1700 1413 1544 1493 1285 1853 580 1460 1611 899 439 757 1219 879 532 1202
is_linear=0
shrinkage=0.1


Tree=2
num_leaves=31
num_cat=0
split_feature=1 1 1 1 1 1 1 1 1 14 1 1 14 1 1 1 14 1 1 1 14 1 1 14 14 1 15 14 14 1
split_gain=2.32312e+06 331284 329959 62030.8 60902.5 49750.3 47883.6 13726.8 10250.8 9523.66 9141.78 8979.28 7570.55 5589.55 4680.49 3662.17 2892.93 2854.48 2750.7 2297.42 2139 1903 1876.6 1719.49 1716.24 1646.54 1505.77 1479.97 1387.83 1257.4
threshold=50.500000000000007 67.500000000000014 34.500000000000007 80.500000000000014 23.500000000000004 41.500000000000007 58.500000000000007 90.500000000000014 28.500000000000004 36.833333333333336 16.500000000000004 72.500000000000014 40.833333333333336 62.500000000000007 38.500000000000007 44.500000000000007 26.166666666666668 47.500000000000007 54.500000000000007 98.500000000000014 24.833333333333339 85.500000000000014 8.5000000000000018 42.500000000000007 27.166666666666668 54.500000000000007 33.083333333333336 19.500000000000004 19.833333333333339 32.500000000000007
decision_type=2 2 2 2 2 2 2 2 2 2 2 2 2 2 2 2 2 2 2 2 2 2 2 2 2 2 2 2 2 2
left_child=2 6 4 11 10 14 12 21 27 15 22 -3 25 26 20 -7 29 -11 -14 -9 -4 -5 -1 -15 -16 -2 -8 -6 -12 -10
right_child=1 3 5 7 8 9 13 19 16 17 28 -13 18 23 24 -17 -18 -19 -20 -21 -22 -23 -24 -25 -26 -27 -28 -29 -30 -31
leaf_value=-2.8667787192849552 0.18833884999904174 1.7739303922369367 -1.003787101177793 2.6493014575364509 -1.7380171551897718 -0.46254632562909359 0.61553007155656825 3.5211660065265917 -1.355228647908274 -0.05656333035759388 -2.0620378660777261 2.2132577244729092 0.54644147395509901 1.0822025641982937 -0.72124252407515099 -0.17468504513171987 -1.0340394984987797 0.25642085231233985 0.83989521750672302 4.250610603720455 -0.76097211018354005 3.0169474195397421 -2.3509257489356443 1.434954101747655 -0.48123695067729727 0.47823697260569742 1.0843132086539782 -1.4803576074301339 -1.8169274416836825 -1.135293259347169
leaf_weight=85 478 924 570 363 296 759 75 161 739 744 378 937 619 162 534 1058 849 479 660 59 998 230 414 940 674 332 793 903 594 401
leaf_count=85 478 924 570 363 296 759 75 161 739 744 378 937 619 162 534 1058 849 479 660 59 998 230 414 940 674 332 793 903 594 401
internal_value=3.5699e-09 1.44925 -0.931532 2.31347 -1.55861 -0.429204 0.879916 3.04217 -1.31301 -0.149719 -2.09087 1.99513 0.546376 1.2336 -0.735269 -0.294931 -1.17379 0.06602 0.697872 3.71679 -0.84924 2.7919 -2.4388 1.3831 -0.587332 0.307161 1.04381 -1.54397 -1.91225 -1.27787
internal_weight=17208 6733 10475 2674 4659 5816 4059 813 3188 3040 1471 1861 2089 1970 2776 1817 1989 1223 1279 220 1568 593 499 1102 1208 810 868 1199 972 1140
internal_count=17208 6733 10475 2674 4659 5816 4059 813 3188 3040 1471 1861 2089 1970 2776 1817 1989 1223 1279 220 1568 593 499 1102 1208 810 868 1199 972 1140
is_linear=0
shrinkage=0.1


Tree=3
num_leaves=31
num_cat=0
split_feature=1 1 1 1 1 1 1 1 1 1 16 15 1 1 1 1 14 1 14 1 14 14 1 1 1 0 14 14 0 0
split_gain=1.88271e+06 312287 221955 64838.8 40929.6 39813.6 34423.1 11306.1 9462.51 9309.34 7082.03 6551.17 5507.34 5456.43 3979.82 3623.37 2434.97 2384.89 2272.13 2076.15 1923.57 1919.27 1908.71 1286.44 1249.67 1187.38 1166.05 1111.51 1015.3 996.3
threshold=52.500000000000007 36.500000000000007 69.500000000000014 25.500000000000004 44.500000000000007 85.500000000000014 61.500000000000007 18.500000000000004 75.500000000000014 31.500000000000004 34.708333333333336 34.083333333333336 94.500000000000014 40.500000000000007 65.500000000000014 56.500000000000007 30.166666666666668 11.500000000000002 23.166666666666668 48.500000000000007 25.833333333333339 21.166666666666668 80.500000000000014 21.500000000000004 48.500000000000007 1050.5000000000002 47.166666666666679 57.833333333333336 1071.5000000000002 1157.5000000000002
decision_type=2 2 2 2 2 2 2 2 2 2 2 2 2 2 2 2 2 2 2 2 2 2 2 2 2 2 2 2 2 2
left_child=1 3 6 7 13 8 11 17 27 21 24 -2 29 20 26 -13 -15 -1 -11 -12 -3 -5 -10 -9 -6 -21 -8 -4 -17 -7
right_child=2 4 5 9 10 12 14 23 22 18 19 15 -14 16 -16 28 -18 -19 -20 25 -22 -23 -24 -25 -26 -27 -28 -29 -30 -31
leaf_value=-2.4570662383061306 0.3228016732321799 -0.76230247477272595 1.6861597195793601 -1.4049538515932192 -0.20983596195242449 2.6130007710017211 0.96412018560485491 -1.7511763227598012 2.0867224088704814 -1.0786192137735113 0.067774241357602738 0.59155020824046411 3.6099870423139153 -0.48912644770900554 1.4336117013290652 0.80300514400976108 -0.23369803717498527 -2.0142700386930397 -0.83959844405744599 0.22762331588982612 -0.5391134454785117 -1.1703972975893553 2.3843712997830604 -1.5325458829557428 -0.0036019452544764729 0.50038633087295514 1.2086558999661898 1.9259776846567789 1.0086867032468623 2.9634602621587787
leaf_weight=157 426 642 680 492 743 141 292 409 530 578 577 736 118 754 821 614 739 540 1275 451 969 1199 363 787 486 247 587 270 394 191
leaf_count=157 426 642 680 492 743 141 292 409 530 578 577 736 118 754 821 614 739 540 1275 451 969 1199 363 787 486 247 587 270 394 191
internal_value=7.19653e-10 -0.781339 1.40027 -1.32137 -0.257775 2.17991 0.938336 -1.79388 1.97401 -1.06898 0.0430114 0.67436 3.02318 -0.50042 1.27529 0.760234 -0.362695 -2.11401 -0.914155 0.208125 -0.628057 -1.23864 2.20772 -1.60731 -0.128282 0.324145 1.12742 1.75432 0.883401 2.81462
internal_weight=17208 11045 6163 5437 5608 2293 3870 1893 1843 3544 2504 2170 450 3104 1700 1744 1493 697 1853 1275 1611 1691 893 1196 1229 698 879 950 1008 332
internal_count=17208 11045 6163 5437 5608 2293 3870 1893 1843 3544 2504 2170 450 3104 1700 1744 1493 697 1853 1275 1611 1691 893 1196 1229 698 879 950 1008 332
is_linear=0
shrinkage=0.1


Tree=4
num_leaves=31
num_cat=0
split_feature=1 1 1 1 1 1 1 1 1 1 1 14 14 1 14 14 14 1 1 1 14 1 0 14 1 14 14 14 1 14
split_gain=1.52545e+06 218338 217237 45366.5 39977.2 32836 26043.2 9334.12 7838.21 6950.13 6119.41 5404.88 5269.63 4692.53 2405.18 2027.94 1887.06 1837.79 1833.94 1796.01 1690.13 1680.59 1582.57 1460.37 1289.96 1171.66 1134.24 1101.34 1096.25 1007.21
threshold=50.500000000000007 66.500000000000014 34.500000000000007 80.500000000000014 23.500000000000004 42.500000000000007 58.500000000000007 90.500000000000014 72.500000000000014 28.500000000000004 16.500000000000004 32.833333333333336 42.500000000000007 38.500000000000007 39.166666666666679 26.166666666666668 27.166666666666668 53.500000000000007 62.500000000000007 47.500000000000007 34.166666666666679 102.50000000000001 1037.5000000000002 27.833333333333339 8.5000000000000018 43.833333333333336 25.500000000000004 19.833333333333339 46.500000000000007 56.833333333333336
decision_type=2 2 2 2 2 2 2 2 2 2 2 2 2 2 2 2 2 2 2 2 2 2 2 2 2 2 2 2 2 2
left_child=2 6 4 8 10 13 12 22 25 26 24 28 23 20 -8 -11 -15 -14 -16 -13 -4 -9 -5 -2 -1 -3 -6 -12 -7 -10
right_child=1 3 5 7 9 11 14 21 29 15 27 19 17 16 18 -17 -18 -19 -20 -21 -22 -23 -24 -25 -26 -27 -28 -29 -30 -31
leaf_value=-2.3343942328060376 0.01113953953066831 1.1219900800148026 -0.73891771011682306 1.8038573896183689 -1.3257480017051082 -0.30813428024663725 0.63728670033078705 2.9192767634834214 1.7175072433186227 -1.0371832813273527 -1.6821928653767502 -0.045417005515928512 0.41321575439606728 -0.5724652400125807 0.8927405426545163 -0.83303851339048995 -0.35224785248946389 0.67161172690045234 1.1102429011207748 0.18784238317590438 -0.47823529218473743 3.7754372303302475 2.3165713729404267 0.32425537563802131 -1.9067053467755155 1.4430858185737296 -1.1214172708837746 -1.4638420723504089 -0.11945956416545421 1.9319578923605232
leaf_weight=85 189 128 1258 68 783 782 199 194 588 1140 378 790 429 667 741 849 934 768 813 567 310 26 525 703 414 1013 416 594 508 349
leaf_count=85 189 128 1258 68 783 782 199 194 588 1140 378 790 429 667 741 849 934 768 813 567 310 26 525 703 414 1013 416 594 508 349
internal_value=4.54838e-09 1.17437 -0.754851 1.83084 -1.26366 -0.34726 0.680399 2.46416 1.58306 -1.06468 -1.6949 -0.0872759 0.441898 -0.564419 0.964614 -0.950045 -0.443994 0.579004 1.00653 0.0520466 -0.68738 3.02046 2.25778 0.257911 -1.97956 1.40706 -1.25485 -1.54876 -0.233834 1.79738
internal_weight=17208 6733 10475 2891 4659 5816 3842 813 2078 3188 1471 2647 2089 3169 1753 1989 1601 1197 1554 1357 1568 220 593 892 499 1141 1199 972 1290 937
internal_count=17208 6733 10475 2891 4659 5816 3842 813 2078 3188 1471 2647 2089 3169 1753 1989 1601 1197 1554 1357 1568 220 593 892 499 1141 1199 972 1290 937
is_linear=0
shrinkage=0.1


Tree=5
num_leaves=31
num_cat=0
split_feature=1 1 1 1 1 1 1 1 1 1 14 14 14 1 1 1 1 14 1 0 14 0 14 14 0 0 0 14 9 14
split_gain=1.23698e+06 205224 146155 42929.1 26845.2 26627.4 22339.8 9152.85 6203.38 4966.22 4816.7 4347.64 3847.7 3698.75 2567.52 1999.6 1936.35 1802.75 1761.74 1484.35 1207.01 1205.36 1168.34 1164.67 1134.98 1115.08 1061.61 1035.6 1018.99 984.212
threshold=52.500000000000007 36.500000000000007 69.500000000000014 26.500000000000004 44.500000000000007 85.500000000000014 61.500000000000007 19.500000000000004 75.500000000000014 32.500000000000007 38.166666666666679 42.833333333333336 34.166666666666679 94.500000000000014 65.500000000000014 12.500000000000002 40.500000000000007 24.500000000000004 56.500000000000007 1050.5000000000002 30.166666666666668 1087.5000000000002 28.833333333333339 27.166666666666668 1081.5000000000002 1017.5000000000001 913.50000000000011 19.833333333333339 28.500000000000004 59.500000000000007
decision_type=2 2 2 2 2 2 2 2 2 2 2 2 2 2 2 2 2 2 2 2 2 2 2 2 2 2 2 2 2 2
left_child=1 3 6 7 12 8 11 15 -4 17 22 20 16 -7 24 -1 26 -5 -13 -12 -2 -10 -6 -11 -8 -14 -3 -9 -24 -23
right_child=2 4 5 9 10 13 14 27 21 23 19 18 25 -15 -16 -17 -18 -19 -20 -21 -22 29 28 -25 -26 -27 -28 -29 -30 -31
leaf_value=-1.9607139838999839 0.16304660860697429 -0.67065983189601608 1.4214071876124332 -1.0578907601207461 -0.19028876611480006 2.2863820274192168 0.81230071862105424 -1.3843245516974352 1.6134269299087944 -0.78855252256882435 0.10976885929332113 0.51343395640056977 -0.30799658041076639 2.9381960286932478 1.1587800202743761 -1.5960997265848249 -0.37045483772748677 -0.85709728272293106 0.74390159335362138 0.35634025654986373 0.43769541072124607 1.7821713637863124 0.1465008161744922 -0.61168746198577895 1.0412666292851454 -0.070364967506469742 -0.48230152068520349 -1.1954971082014132 -0.10036320270466269 2.0558687997242759
leaf_weight=199 225 511 950 909 648 332 493 435 273 877 802 546 633 118 821 616 951 880 845 351 554 431 274 647 386 287 722 874 429 189
leaf_count=199 225 511 950 909 648 332 493 435 273 877 802 546 633 118 821 616 951 880 845 351 554 431 274 647 386 287 722 874 429 189
internal_value=1.17283e-09 -0.633329 1.13502 -1.07111 -0.208898 1.76767 0.760169 -1.42205 1.59928 -0.846119 0.0346998 0.547512 -0.405409 2.4573 1.03162 -1.68513 -0.47767 -0.959121 0.653438 0.184831 0.358368 1.78851 -0.0934284 -0.713466 0.912848 -0.233866 -0.560364 -1.25825 -0.00414593 1.8656
internal_weight=17208 11045 6163 5437 5608 2293 3870 2124 1843 3313 2504 2170 3104 450 1700 815 2184 1789 1391 1153 779 893 1351 1524 879 920 1233 1309 703 620
internal_count=17208 11045 6163 5437 5608 2293 3870 2124 1843 3313 2504 2170 3104 450 1700 815 2184 1789 1391 1153 779 893 1351 1524 879 920 1233 1309 703 620
is_linear=0
shrinkage=0.1


Tree=6
num_leaves=31
num_cat=0
split_feature=1 1 1 1 1 1 1 1 1 1 14 1 14 16 14 0 1 1 0 0 1 0 1 14 0 1 14 14 1 0
split_gain=1.00293e+06 143044 142454 30246.5 26883.1 21612.3 17297.6 6278.39 5668.65 5195.29 4386.34 3309.15 2992.48 2293.84 2247.98 1770.29 1744.48 1529.56 1280.72 1236.82 1228.31 1189.34 1106.14 1028.19 1003.96 887.341 884.406 881.89 858.104 823.68
threshold=50.500000000000007 66.500000000000014 34.500000000000007 80.500000000000014 22.500000000000004 41.500000000000007 57.500000000000007 91.500000000000014 28.500000000000004 72.500000000000014 36.833333333333336 14.500000000000002 34.166666666666679 38.541666666666679 27.500000000000004 953.50000000000011 62.500000000000007 44.500000000000007 1058.5000000000002 869.50000000000011 46.500000000000007 1109.5000000000002 102.50000000000001 55.833333333333336 1096.5000000000002 38.500000000000007 19.166666666666668 22.833333333333339 87.500000000000014 1071.5000000000002
decision_type=2 2 2 2 2 2 2 2 2 2 2 2 2 2 2 2 2 2 2 2 2 2 2 2 2 2 2 2 2 2
left_child=2 6 4 9 11 14 12 21 19 23 17 -1 -2 -8 25 27 29 -7 -14 -6 -12 -5 -9 -3 -16 -4 -13 -10 -23 -15
right_child=1 3 5 7 8 10 13 22 15 -11 20 26 18 16 24 -17 -18 -19 -20 -21 -22 28 -24 -25 -26 -27 -28 -29 -30 -31
leaf_value=-1.6829367211986992 0.11585705365226634 1.0693072823849874 -0.63531855814642391 1.6384198363870384 -1.1420488419988726 -0.30466720333589153 0.40784572143771358 2.403161216349829 -0.94613561462373186 1.4557531363695559 -0.05086345229987297 -1.4539220920148885 0.32996685983229912 0.62526747500662017 -0.41719011037063886 -0.63776602686172534 0.89343803029957614 -0.11863145002134018 0.53055709634222648 -0.95132927225875152 0.14957543010570271 1.8586661095252404 3.1040740233201252 1.2691989290318928 -0.099429676350620055 -0.47296994331805708 -1.2485149988014161 -0.77496340418926568 2.1911281763338577 0.81210577606773637
leaf_weight=340 481 749 863 192 585 759 174 168 470 937 616 318 836 607 1253 682 844 1058 514 812 607 325 26 392 108 552 615 837 102 386
leaf_count=340 481 749 863 192 585 759 174 168 470 937 616 318 836 607 1253 682 844 1058 514 812 607 325 26 392 108 552 615 837 102 386
internal_value=-5.15821e-10 0.952232 -0.612065 1.48359 -1.02409 -0.282003 0.552401 2.00071 -0.876805 1.28127 -0.0977941 -1.41585 0.330031 0.754867 -0.483731 -0.768368 0.787736 -0.196343 0.40634 -1.03119 0.0486185 1.84513 2.4971 1.13798 -0.391975 -0.571985 -1.31853 -0.836517 1.93808 0.697895
internal_weight=17208 6733 10475 2891 4659 5816 3842 813 3386 2078 3040 1273 1831 2011 2776 1989 1837 1817 1350 1397 1223 619 194 1141 1361 1415 933 1307 427 993
internal_count=17208 6733 10475 2891 4659 5816 3842 813 3386 2078 3040 1273 1831 2011 2776 1989 1837 1817 1350 1397 1223 619 194 1141 1361 1415 933 1307 427 993
is_linear=0
shrinkage=0.1


Tree=7
num_leaves=31
num_cat=0
split_feature=1 1 1 1 1 1 1 1 1 14 1 15 1 1 0 1 14 1 14 0 0 0 14 14 14 14 9 9 8 0
split_gain=813318 124783 106014 21775.3 20952.9 19825 15713.4 4658.69 4284.91 3932.31 3277.77 2973.02 2680.41 2658.52 2461.76 1575 1392.03 1299.2 1284.79 1283.58 1188.87 1162.89 1016.19 849.992 802.336 763.403 844.951 842.848 1468.92 750.847
threshold=51.500000000000007 34.500000000000007 68.500000000000014 22.500000000000004 42.500000000000007 83.500000000000014 59.500000000000007 29.500000000000004 74.500000000000014 32.833333333333336 93.500000000000014 33.083333333333336 14.500000000000002 38.500000000000007 1071.5000000000002 47.500000000000007 49.500000000000007 55.500000000000007 23.166666666666668 929.50000000000011 1167.5000000000002 889.50000000000011 39.166666666666679 56.833333333333336 46.500000000000007 26.166666666666668 12.500000000000002 25.500000000000004 19.500000000000004 821.50000000000011
decision_type=2 2 2 2 2 2 2 2 2 2 2 2 2 2 2 2 2 2 2 2 2 2 2 2 2 2 2 2 2 2
left_child=1 3 6 12 13 8 11 18 23 25 -7 -2 -1 22 16 -11 -8 -13 -5 -15 24 -9 29 -4 -10 26 -6 -27 -29 -3
right_child=2 4 5 7 9 10 14 21 20 15 -12 17 -14 19 -16 -17 -18 -19 -20 -21 -22 -23 -24 -25 -26 27 -28 28 -30 -31
leaf_value=-1.5146430717145698 0.15320800117306632 -0.72324676212859673 1.047619176449692 -0.99829659652878999 -0.040877662684848846 1.7889036405734702 0.53198259490570832 -0.77539236809689682 1.0316678395831442 -0.034021991429042921 2.3564403982304816 0.34369619282770836 -1.1866726135709278 -0.42963837615736744 0.88763565205552541 0.16604267535018449 0.7674194953884943 0.52779625653175344 -0.82280084578118728 -0.24756773130642992 1.55607551838872 -0.60695969396762917 -0.30176522590501131 1.2426401991180689 1.3684945121625729 0.013485135549101338 -0.3246551250708159 0.070248962334402795 -0.31839105802661694 -0.50743381281640665
leaf_weight=340 478 187 706 811 139 423 454 677 83 790 134 742 933 656 926 784 562 793 859 945 338 1039 212 327 478 348 428 143 304 1169
leaf_count=340 478 187 706 811 139 423 454 677 83 790 134 742 933 656 926 784 562 793 859 945 338 1039 212 327 478 348 428 143 304 1169
internal_value=9.8872e-10 -0.531932 0.888534 -0.921683 -0.234495 1.39982 0.566766 -0.789125 1.24828 -0.0420255 1.92544 0.370988 -1.27427 -0.412813 0.769702 0.065629 0.662214 0.438805 -0.908027 -0.32217 1.40792 -0.67341 -0.505364 1.10935 1.31866 -0.166437 -0.255087 -0.103211 -0.194061 -0.537196
internal_weight=17208 10764 6444 4659 6105 2489 3955 3386 1932 2936 557 2013 1273 3169 1942 1574 1016 1535 1670 1601 899 1716 1568 1033 561 1362 567 795 447 1356
internal_count=17208 10764 6444 4659 6105 2489 3955 3386 1932 2936 557 2013 1273 3169 1942 1574 1016 1535 1670 1601 899 1716 1568 1033 561 1362 567 795 447 1356
is_linear=0
shrinkage=0.1


Tree=8
num_leaves=31
num_cat=0
split_feature=1 1 1 1 1 1 1 1 1 1 14 14 14 1 1 0 0 0 0 0 0 1 14 14 1 14 0 1 15 14
split_gain=659367 109661 78021.4 23223.9 14412.5 14259 11931.5 4290.99 3469.14 3440.23 2982.32 2573.55 2321 2036.95 1999.29 1603.79 1170.02 1078.34 1072.4 931.727 881.097 857.382 829.092 788.694 777.794 751.717 742.74 736.875 725.627 696.762
threshold=52.500000000000007 36.500000000000007 69.500000000000014 25.500000000000004 85.500000000000014 45.500000000000007 60.500000000000007 17.500000000000004 31.500000000000004 76.500000000000014 26.500000000000004 42.500000000000007 42.833333333333336 95.500000000000014 65.500000000000014 974.50000000000011 849.50000000000011 996.50000000000011 1000.5000000000001 987.50000000000011 808.50000000000011 8.5000000000000018 17.833333333333339 59.500000000000007 43.500000000000007 23.500000000000004 1013.5000000000001 55.500000000000007 44.083333333333336 57.166666666666679
decision_type=2 2 2 2 2 2 2 2 2 2 2 2 2 2 2 2 2 2 2 2 2 2 2 2 2 2 2 2 2 2
left_child=1 3 6 7 9 10 12 21 18 -4 19 26 -2 -6 17 -12 -10 28 22 -3 -9 -1 -5 -11 -17 -18 -7 -14 -8 -16
right_child=2 5 4 8 13 11 14 20 16 23 15 -13 27 -15 29 24 25 -19 -20 -21 -22 -23 -24 -25 -26 -27 -28 -29 -30 -31
leaf_value=-1.5851255057839788 0.23949296792296201 -0.45921998108186202 1.0512922108242808 -0.98124634915229059 1.6809085106504136 -0.093444765565116106 0.18141754341740457 -1.1053759167829673 -0.68249921250693946 1.2630798989030367 -0.28298105307506327 0.18791440593750544 0.35847889582900438 2.1839364215305874 0.79659949341450542 -0.16479162799143826 -0.60132838840732417 0.70518762539723701 -0.55729763597355297 -0.27740704739821104 -0.91727982904244532 -1.2413386758529779 -0.74267126675800077 1.4853319779961511 0.038369074229930723 -0.44467690350167599 0.062012607432817196 0.52138278760694978 0.56258410435185391 1.0087501275222659
leaf_weight=85 728 857 1073 165 345 842 63 334 425 544 1219 829 425 105 614 699 445 791 283 420 979 495 1243 226 258 983 484 801 241 207
leaf_count=85 728 857 1073 165 345 842 63 334 425 544 1219 829 425 105 614 699 445 791 283 420 979 495 1243 226 258 983 484 801 241 207
internal_value=1.69775e-09 -0.462393 0.828677 -0.782406 1.29091 -0.152138 0.554799 -1.06519 -0.631358 1.16703 -0.278108 0.0497052 0.380927 1.79828 0.732118 -0.206914 -0.536843 0.643667 -0.734927 -0.399422 -0.965128 -1.29172 -0.770629 1.32831 -0.110021 -0.493493 -0.0367017 0.464911 0.483592 0.850089
internal_weight=17208 11045 6163 5437 2293 5608 3870 1893 3544 1843 3453 2155 1954 450 1916 2176 1853 1095 1691 1277 1313 580 1408 770 957 1428 1326 1226 304 821
internal_count=17208 11045 6163 5437 2293 5608 3870 1893 3544 1843 3453 2155 1954 450 1916 2176 1853 1095 1691 1277 1313 580 1408 770 957 1428 1326 1226 304 821
is_linear=0
shrinkage=0.1


Tree=9
num_leaves=31
num_cat=0
split_feature=1 1 1 1 1 1 1 1 14 1 14 14 1 14 1 0 0 9 1 0 0 16 14 8 14 14 0 9 8 14
split_gain=534422 83968.4 70727 16404.4 13390.9 11218.7 10940.8 3594.82 2861.95 2787.94 1911.61 1888.29 1733.25 1542.74 1428.28 1364.05 1151.03 991.98 937.604 912.471 898.6 889.289 845.313 1113.93 819.665 785.259 770.109 766.031 1306.41 891.896
threshold=49.500000000000007 66.500000000000014 32.500000000000007 80.500000000000014 40.500000000000007 56.500000000000007 21.500000000000004 89.500000000000014 29.166666666666668 72.500000000000014 48.166666666666679 25.500000000000004 61.500000000000007 25.833333333333339 12.500000000000002 925.50000000000011 885.50000000000011 29.500000000000004 99.500000000000014 881.50000000000011 1037.5000000000002 48.208333333333336 31.500000000000004 27.500000000000004 28.500000000000004 43.833333333333336 951.50000000000011 24.500000000000004 19.500000000000004 18.833333333333339
decision_type=2 2 2 2 2 2 2 2 2 2 2 2 2 2 2 2 2 2 2 2 2 2 2 2 2 2 2 2 2 2
left_child=2 5 6 9 13 10 14 20 -6 25 24 16 -7 27 -1 -10 -8 -13 -9 -16 -5 -14 23 -19 -2 -3 -15 29 -29 -4
right_child=1 3 4 7 8 12 11 18 15 -11 -12 17 21 26 19 -17 -18 22 -20 -21 -22 -23 -24 -25 -26 -27 -28 28 -30 -31
leaf_value=-1.3060663677939219 -0.032210944740757773 0.59625300415791571 -0.60529930809763643 0.96334688153959103 -0.22954357392856425 0.44636931658058149 -0.84329817195214718 1.6807854820460808 -0.1639509948808866 1.0624160760765142 0.3457359173163338 -0.44460907354335621 0.50115125435853602 -0.40007320875105479 -1.0957855890819006 0.021371405380200218 -0.67996180656199678 -0.55363735514481305 2.1637530193328858 -0.89264264295745588 1.367144454210516 0.68858485642444389 -0.53011961698886068 -0.88342250731526595 0.1707792111265577 0.85912206803705016 -0.2672470659389401 -0.4604560562987467 -0.81800686429319147 -0.37461042375491638
leaf_weight=199 247 128 219 62 1201 1158 814 205 561 937 618 333 394 948 525 1360 918 176 50 382 496 708 321 245 1022 1013 809 286 159 714
leaf_count=199 247 128 219 62 1201 1158 814 205 561 937 618 333 394 948 525 1360 918 176 50 382 496 708 321 245 1022 1013 809 286 159 714
internal_value=6.5401e-10 0.669904 -0.463598 1.0836 -0.255051 0.381508 -0.79707 1.46443 -0.108454 0.934598 0.201508 -0.69211 0.5318 -0.401039 -1.06346 -0.0327493 -0.756726 -0.588002 1.77548 -1.01023 1.32228 0.621571 -0.652355 -0.745555 0.131269 0.829633 -0.338914 -0.480251 -0.58821 -0.428759
internal_weight=17208 7038 10170 2891 6257 4147 3913 813 3122 2078 1887 2807 2260 3135 1106 1921 1732 1075 255 907 558 1102 742 421 1269 1141 1757 1378 445 933
internal_count=17208 7038 10170 2891 6257 4147 3913 813 3122 2078 1887 2807 2260 3135 1106 1921 1732 1075 255 907 558 1102 742 421 1269 1141 1757 1378 445 933
is_linear=0
shrinkage=0.1


Tree=10
num_leaves=31
num_cat=0
split_feature=1 1 1 1 1 1 1 1 0 14 1 1 14 14 0 14 14 0 14 14 1 8 9 0 14 8 9 14 9 8
split_gain=433624 72446.2 51278.1 15698.8 9629.22 9531.23 7690.34 3432.69 2061.57 1874.69 1853.6 1777.12 1740.06 1640.78 1533.48 1241.38 1107.96 949.978 912.696 845.23 838.045 742.413 921.472 706.693 703.031 957.396 692.718 680.098 1301.7 808.031
threshold=52.500000000000007 36.500000000000007 69.500000000000014 26.500000000000004 83.500000000000014 45.500000000000007 60.500000000000007 19.500000000000004 975.50000000000011 23.166666666666668 92.500000000000014 74.500000000000014 42.500000000000007 42.833333333333336 1126.5000000000002 49.500000000000007 26.500000000000004 968.50000000000011 46.500000000000007 18.833333333333339 40.500000000000007 23.500000000000004 22.500000000000004 1167.5000000000002 57.166666666666679 61.500000000000007 52.500000000000007 15.833333333333334 21.500000000000004 11.500000000000002
decision_type=2 2 2 2 2 2 2 2 2 2 2 2 2 2 2 2 2 2 2 2 2 2 2 2 2 2 2 2 2 2
left_child=1 3 6 7 11 8 13 19 16 21 -6 -4 -7 -2 15 -8 -3 -11 -13 -1 -10 27 -23 -20 25 26 -15 -5 -29 -30
right_child=2 5 4 9 10 12 14 -9 20 17 -12 18 -14 24 -16 -17 -18 -19 23 -21 -22 22 -24 -25 -26 -27 -28 28 29 -31
leaf_value=-1.1315607725628554 0.19147527759554439 -0.38117253758211506 0.82581368183701565 -0.75012151628955093 1.2906814703144343 -0.028829625972053588 0.41852271374968464 -0.74699139214825883 -0.22296376197236609 -0.48832748445426644 1.6909188857892667 0.78100808830058677 0.15586601160017299 0.49072741438992895 0.72744917227975925 0.61444013483908433 -0.23041636871463453 -0.34460169018667058 0.9943956380982778 -0.92419855996027356 -0.067245037501479518 -0.65626518048574134 -1.1329044352407041 1.1916355102135461 0.54614655861867145 0.1508826297749557 0.30585685134622587 -0.33719526423336371 -0.43214227700027924 -0.72887024422287938
leaf_weight=331 728 808 837 134 393 1326 553 1309 599 1443 164 128 829 390 584 779 1229 675 478 484 817 343 46 293 213 201 422 277 145 250
leaf_count=331 728 808 837 134 393 1326 553 1309 599 1443 164 128 829 390 584 779 1229 675 478 484 817 343 46 293 213 201 422 277 145 250
internal_value=1.27695e-09 -0.374977 0.672014 -0.635082 1.04675 -0.122803 0.449981 -0.847302 -0.225793 -0.499026 1.40853 0.930671 0.0422203 0.310392 0.592339 0.533102 -0.290216 -0.442523 1.0283 -1.00842 -0.133118 -0.599172 -0.712629 1.06935 0.381005 0.346281 0.394649 -0.544414 -0.503395 -0.619945
internal_weight=17208 11045 6163 5437 2293 5608 3870 2124 3453 3313 557 1736 2155 1954 1916 1332 2037 2118 899 815 1416 1195 389 771 1226 1013 812 806 672 395
internal_count=17208 11045 6163 5437 2293 5608 3870 2124 3453 3313 557 1736 2155 1954 1916 1332 2037 2118 899 815 1416 1195 389 771 1226 1013 812 806 672 395
is_linear=0
shrinkage=0.1


Tree=11
num_leaves=31
num_cat=0
split_feature=1 1 1 1 1 1 1 1 1 14 1 0 0 0 15 14 1 0 0 14 14 0 0 14 1 14 14 9 0 13
split_gain=351551 55645.1 46862.4 12018.8 8817.35 7188.46 6101.79 2693.14 1860.85 1760.28 1607.59 1521.19 1478.08 1239.39 1076.11 946.465 918.682 900.553 811.497 804.991 711.116 702.042 691.044 653.756 639.637 619.843 610.55 643.405 566.387 563.843
threshold=49.500000000000007 65.500000000000014 32.500000000000007 79.500000000000014 41.500000000000007 20.500000000000004 56.500000000000007 89.500000000000014 72.500000000000014 29.166666666666668 26.500000000000004 1060.5000000000002 901.50000000000011 1071.5000000000002 48.416666666666679 18.833333333333339 37.500000000000007 925.50000000000011 1185.5000000000002 21.166666666666668 30.166666666666668 1054.5000000000002 1037.5000000000002 54.500000000000007 10.500000000000002 46.500000000000007 22.833333333333339 22.500000000000004 891.50000000000011 49.500000000000007
decision_type=2 2 2 2 2 2 2 2 2 2 2 2 2 2 2 2 2 2 2 2 2 2 2 2 2 2 2 2 2 2
left_child=2 6 5 8 12 15 11 22 21 -6 -7 20 26 14 -8 -1 -14 -11 -9 -12 -2 -3 -5 -19 -17 -10 -4 -28 -21 -29
right_child=1 3 4 7 9 10 13 18 25 17 19 -13 16 -15 -16 24 -18 23 -20 28 -22 -23 -24 -25 -26 -27 27 29 -30 -31
leaf_value=-1.008469861698654 -0.047193008095953719 0.56709626197261387 -0.50939410752522341 0.77574686973698836 -0.17638317133438322 -0.66163562719280034 0.24354745280988721 1.2447327426651069 0.64116600363469523 -0.12469646967264642 -0.61967948960685515 0.29382451243461155 -0.3226597866786739 0.50513608240088048 0.43454678837795824 -1.1113840312559586 -0.19378119259178139 0.014524702921084929 1.6035319453435588 -0.54502466854364273 0.13885641144561306 0.71610616605221267 1.0969623704520153 0.28890259690741277 -0.76899442987469691 0.88460612664657357 -0.18948418742339865 -0.43298792446214662 -0.41166794744503943 -0.20241023406503708
leaf_weight=379 257 498 345 76 1010 1167 545 114 122 491 492 606 1159 849 643 61 1058 1140 141 562 1024 866 564 94 517 733 190 643 735 127
leaf_count=379 257 498 345 76 1010 1167 545 114 122 491 492 606 1159 849 643 61 1058 1140 141 562 1024 866 564 94 517 733 190 643 735 127
internal_value=1.37847e-09 0.543331 -0.376005 0.858973 -0.206249 -0.647448 0.292845 1.16831 0.734205 -0.0715386 -0.570328 0.163285 -0.310858 0.412866 0.346925 -0.885658 -0.261156 -0.0101513 1.44313 -0.510767 0.10153 0.661702 1.05882 0.0354255 -0.805129 0.84987 -0.395295 -0.354291 -0.469452 -0.394958
internal_weight=17208 7038 10170 3114 6257 3913 3924 895 2219 2735 2956 1887 3522 2037 1188 957 2217 1725 255 1789 1281 1364 640 1234 578 855 1305 960 1297 770
internal_count=17208 7038 10170 3114 6257 3913 3924 895 2219 2735 2956 1887 3522 2037 1188 957 2217 1725 255 1789 1281 1364 640 1234 578 855 1305 960 1297 770
is_linear=0
shrinkage=0.1


Tree=12
num_leaves=31
num_cat=0
split_feature=1 1 1 1 1 1 1 1 14 14 14 1 0 0 1 9 8 14 8 9 0 0 14 9 8 14 14 14 14 8
split_gain=285126 51437 30618 11551 6441.37 6100.4 4198.86 2362.97 1693.69 1678.7 1589.67 1524.24 1103.85 1094.7 1091.41 1001.22 976.952 937.291 2179.64 1183.27 844.052 817.911 753.806 749.299 1068.89 811.48 743.135 733.784 732.322 702.587
threshold=53.500000000000007 37.500000000000007 69.500000000000014 26.500000000000004 85.500000000000014 46.500000000000007 63.500000000000007 18.500000000000004 32.166666666666679 30.166666666666668 23.166666666666668 76.500000000000014 995.50000000000011 1022.5000000000001 99.500000000000014 22.500000000000004 29.500000000000004 29.833333333333339 25.500000000000004 34.500000000000007 1157.5000000000002 1052.5000000000002 59.500000000000007 20.500000000000004 28.500000000000004 26.500000000000004 49.833333333333336 48.166666666666679 26.833333333333339 18.500000000000004
decision_type=2 2 2 2 2 2 2 2 2 2 2 2 2 2 2 2 2 2 2 2 2 2 2 2 2 2 2 2 2 2
left_child=1 3 6 7 11 9 8 -1 -2 23 29 -4 -10 -7 -6 16 -12 18 19 -17 26 -11 -14 -3 25 -25 -8 -15 -20 -5
right_child=2 5 4 10 14 13 20 -9 12 21 15 -13 22 27 -16 17 -18 -19 28 -21 -22 -23 -24 24 -26 -27 -28 -29 -30 -31
leaf_value=-0.8372351641142729 0.065112495234824791 -0.14668530502112026 0.68916259349218789 -0.40297172816838422 1.1331500274147839 0.0039154253034270189 0.37287968996821386 -0.61259996762207813 0.2310551801476875 -0.1171597073616531 0.062247885591708699 0.87355517638290869 0.3606135510531549 0.090270131582384297 1.6286966857910157 -0.18614407241201236 -0.29419945808074249 -0.29831354224005996 -0.71618831922522697 -0.48104647519867616 0.67652280469826831 0.061460138992406432 0.60762461285195224 -0.30994871721032857 -0.5061930780331686 -0.11082401984009836 0.55428476667998172 0.29765152763399505 -0.48135526559390823 -0.55015944092521374
leaf_weight=697 265 754 1073 597 400 1254 369 1427 701 1289 104 770 1258 562 50 354 295 895 226 221 299 320 137 526 171 335 582 245 322 710
leaf_count=697 265 754 1073 597 400 1254 369 1427 701 1289 104 770 1258 562 50 354 295 895 226 221 299 320 137 526 171 335 582 245 322 710
internal_value=1.30176e-09 -0.294178 0.563244 -0.50022 0.84902 -0.0733329 0.381774 -0.686315 0.303313 -0.15572 -0.39408 0.766201 0.333428 0.0623806 1.18821 -0.346035 -0.201291 -0.374654 -0.435495 -0.299489 0.529973 -0.0816356 0.384872 -0.222463 -0.277828 -0.232473 0.483897 0.15323 -0.578202 -0.482928
internal_weight=17208 11304 5904 5848 2293 5456 3611 2124 2361 3395 3724 1843 2096 2061 450 2417 399 2018 1123 575 1250 1609 1395 1786 1032 861 951 807 548 1307
internal_count=17208 11304 5904 5848 2293 5456 3611 2124 2361 3395 3724 1843 2096 2061 450 2417 399 2018 1123 575 1250 1609 1395 1786 1032 861 951 807 548 1307
is_linear=0
shrinkage=0.1


Tree=13
num_leaves=31
num_cat=0
split_feature=1 1 1 1 1 1 1 1 14 14 14 0 0 14 1 0 9 14 8 14 0 14 8 9 0 8 14 14 16 14
split_gain=231214 36166.4 30257.4 7321.14 5882.95 5582.13 4705.32 1424.81 1338.63 1332.48 1283.18 1102.09 1018.94 1017.38 986.8 974.185 904.293 982.601 1437.18 863.74 812.183 798.909 795.898 783.967 752.536 746.964 746.937 734.417 668.507 635.855
threshold=51.500000000000007 33.500000000000007 68.500000000000014 42.500000000000007 81.500000000000014 22.500000000000004 58.500000000000007 92.500000000000014 45.833333333333336 33.833333333333336 17.833333333333339 1251.5000000000002 1027.5000000000002 53.166666666666679 11.500000000000002 852.50000000000011 33.500000000000007 23.833333333333339 30.500000000000004 57.833333333333336 1000.5000000000001 62.500000000000007 18.500000000000004 20.500000000000004 887.50000000000011 29.500000000000004 30.166666666666668 22.166666666666668 46.791666666666679 17.166666666666668
decision_type=2 2 2 2 2 2 2 2 2 2 2 2 2 2 2 2 2 2 2 2 2 2 2 2 2 2 2 2 2 2
left_child=1 5 6 9 11 14 12 21 24 16 -7 19 28 20 -1 -12 17 22 -19 -4 -8 -6 29 -24 -5 26 -18 -16 -2 -3
right_child=2 3 4 8 7 10 13 -9 -10 -11 15 -13 -14 -15 27 -17 25 18 -20 -21 -22 -23 23 -25 -26 -27 -28 -29 -30 -31
leaf_value=-0.91980597429262234 0.024747247985552182 -0.45762217579176651 0.57550978447107803 -0.17375924158771949 0.84539576715529674 -0.60895044146486188 0.22856833602941473 1.2483652671662773 0.10249262262725628 -0.12555328068081981 -0.50211273481583463 0.88415953652933243 0.25934857205756295 0.49176405259807199 -0.71885142955508896 -0.37000895864639655 -0.41521509808073109 -0.090305391770953702 -0.30436145873624321 0.73668440791962764 0.39856828521847659 1.1299971102628596 -0.34505767634527834 -0.66725210274259261 -0.0273246986937771 -0.63702410112844776 -0.095951370909662534 -0.55353940057107753 0.19534320348069878 -0.16927171644625907
leaf_weight=157 466 96 1125 436 419 372 396 164 701 891 805 180 881 791 665 1821 267 723 554 472 968 129 354 96 1799 99 101 451 453 376
leaf_count=157 466 96 1125 436 419 372 396 164 701 891 805 180 881 791 665 1821 267 723 554 472 968 129 354 96 1799 99 101 451 453 376
internal_value=1.12594e-09 -0.283617 0.473752 -0.134953 0.7469 -0.509625 0.301851 0.989779 -0.0180752 -0.231425 -0.435129 0.649585 0.182505 0.401537 -0.685068 -0.410505 -0.266808 -0.239969 -0.183169 0.623146 0.349213 0.912391 -0.318638 -0.413792 -0.0558909 -0.393188 -0.327591 -0.652045 0.108839 -0.227919
internal_weight=17208 10764 6444 6493 2489 4271 3955 712 2936 3557 2998 1777 1800 2155 1273 2626 2666 2199 1277 1597 1364 548 922 450 2235 467 368 1116 919 472
internal_count=17208 10764 6444 6493 2489 4271 3955 712 2936 3557 2998 1777 1800 2155 1273 2626 2666 2199 1277 1597 1364 548 922 450 2235 467 368 1116 919 472
is_linear=0
shrinkage=0.1


Tree=14
num_leaves=31
num_cat=0
split_feature=1 1 1 1 1 1 1 1 14 0 0 0 15 0 0 14 0 14 0 14 8 14 8 9 14 9 9 1 14 9
split_gain=187810 29867.2 25466.8 6502.44 6039.42 3293.68 2819.84 1517.59 1313.05 1166.93 1153.71 1094.54 884.031 879.171 814 789.621 725.639 699.739 680.578 644.606 678.95 650.11 628.142 893.645 781.556 633.281 610.536 585.825 567.47 590.293
threshold=49.500000000000007 65.500000000000014 30.500000000000004 79.500000000000014 40.500000000000007 55.500000000000007 19.500000000000004 87.500000000000014 28.833333333333339 889.50000000000011 1054.5000000000002 1071.5000000000002 48.416666666666679 818.50000000000011 1207.5000000000002 46.500000000000007 1022.5000000000001 56.833333333333336 769.50000000000011 31.500000000000004 30.500000000000004 17.500000000000004 19.500000000000004 25.500000000000004 21.166666666666668 18.500000000000004 29.500000000000004 73.500000000000014 23.500000000000004 13.500000000000002
decision_type=2 2 2 2 2 2 2 2 2 2 2 2 2 2 2 2 2 2 2 2 2 2 2 2 2 2 2 2 2 2
left_child=2 5 6 10 9 15 18 -5 22 -4 -3 12 -7 -8 -9 -2 -10 27 -1 20 21 -11 24 28 -6 -26 -22 -12 29 -24
right_child=1 3 4 7 8 11 13 14 16 19 17 -13 -14 -15 -16 -17 -18 -19 -20 -21 26 -23 23 -25 25 -27 -28 -29 -30 -31
leaf_value=-0.82493192102102675 0.050710049225110014 0.43038457641750577 -0.32819915341543837 0.75423057607555988 -0.26949650563382932 0.15058406933430429 -0.55981898830464671 0.89111370993068995 -0.055380942975188377 -0.43425608768931823 0.48536920179082754 0.37528525331532814 0.31268340705059239 -0.41841461438323757 1.2051896291719357 0.19252088210568619 0.074786176879059307 0.68302454855227324 -0.61398074069127462 -0.12979528447772776 -0.30285271149622639 -0.18784910398035454 -0.16694813917080564 -0.45713842997831278 0.32990164688946505 -0.043131909649009294 -0.63790779954288157 0.64649820994763152 -0.10268221059971948 -0.63664443082279631
leaf_weight=204 1006 700 1294 556 137 653 576 197 1333 117 687 927 694 1858 142 644 631 496 611 700 362 1262 66 122 53 322 64 336 413 45
leaf_count=204 1006 700 1294 556 137 653 576 197 1333 117 687 927 694 1858 142 644 631 496 611 700 362 1262 66 122 53 322 64 336 413 45
internal_value=1.16505e-09 0.397127 -0.274826 0.628375 -0.166404 0.213614 -0.505786 0.855909 -0.063358 -0.251087 0.536603 0.291655 0.234101 -0.451878 1.02267 0.106059 -0.0135604 0.585551 -0.666783 -0.211253 -0.242843 -0.208755 -0.147816 -0.213384 -0.0650873 0.00959017 -0.35319 0.538291 -0.156632 -0.357366
internal_weight=17208 7038 10170 3114 6921 3924 3249 895 3122 3799 2219 2274 1347 2434 339 1650 1964 1519 815 2505 1805 1379 1158 646 512 375 426 1023 524 111
internal_count=17208 7038 10170 3114 6921 3924 3249 895 3122 3799 2219 2274 1347 2434 339 1650 1964 1519 815 2505 1805 1379 1158 646 512 375 426 1023 524 111
is_linear=0
shrinkage=0.1


Tree=15
num_leaves=31
num_cat=0
split_feature=1 1 1 1 1 1 1 1 14 14 0 0 14 14 9 0 8 14 14 9 8 0 8 14 8 0 14 0 8 0
split_gain=152150 27807.2 16573.2 6395.38 3723.57 3398.59 2645.17 1520.72 1285.58 1121.21 959.451 882.032 783.935 753.716 971.031 750.823 739.336 715.604 710.667 685.486 1002.37 675.617 661.977 1085.07 657.336 647.883 605.05 592.004 579.831 556.268
threshold=53.500000000000007 37.500000000000007 72.500000000000014 27.500000000000004 63.500000000000007 47.500000000000007 87.500000000000014 17.500000000000004 26.500000000000004 30.500000000000004 889.50000000000011 1052.5000000000002 58.166666666666679 24.500000000000004 25.500000000000004 940.50000000000011 17.500000000000004 54.833333333333336 42.500000000000007 13.500000000000002 23.500000000000004 1171.5000000000002 27.500000000000004 17.166666666666668 23.500000000000004 889.50000000000011 52.166666666666679 1003.5000000000001 12.500000000000002 877.50000000000011
decision_type=2 2 2 2 2 2 2 2 2 2 2 2 2 2 2 2 2 2 2 2 2 2 2 2 2 2 2 2 2 2
left_child=1 3 4 7 9 8 11 29 19 -2 -5 -4 -13 14 22 -7 -10 27 -6 -3 -21 -8 23 -9 -16 -18 -17 -11 -25 -1
right_child=2 5 6 10 18 15 21 13 16 17 -12 12 -14 -15 24 26 25 -19 -20 20 -22 -23 -24 28 -26 -27 -28 -29 -30 -31
leaf_value=-0.70881376677847752 -0.003288465659247666 -0.05600503941050225 0.45041615172688454 -0.34678189591732173 0.22346175667413035 -0.040306256262018635 0.75711332362787476 -0.52297600691948654 0.19134262807179836 0.13677135989323805 -0.23843314971286375 0.58814051838063108 0.76319249783406784 -0.35910270092817004 -0.5431681433157628 0.074921697169866561 -0.17560482585077522 0.35206652098011393 0.43244020708238073 -0.17031923981455296 -0.40580485474303185 1.0424549697600689 -0.56139947714977989 0.2864652229845524 -0.83232153247076068 -0.049792300844664641 0.27050746462397995 0.25818747737112768 -0.27207045749453085 -0.5062422354550411
leaf_weight=364 205 285 280 1320 181 506 145 236 107 653 2146 740 391 631 289 1057 524 460 1612 674 247 194 255 20 108 1870 186 1043 263 216
leaf_count=364 205 285 280 1320 181 506 145 236 107 653 2146 740 391 631 289 1057 524 460 1612 674 247 194 255 20 108 1870 186 1043 263 216
internal_value=9.28806e-10 -0.214896 0.411447 -0.36639 0.302701 -0.0525172 0.669581 -0.492536 -0.106729 0.220194 -0.279697 0.609319 0.648658 -0.447206 -0.49468 0.0623852 -0.0658356 0.241443 0.411344 -0.191534 -0.233473 0.920406 -0.429463 -0.364639 -0.62183 -0.0773302 0.104189 0.211439 -0.232598 -0.633373
internal_weight=17208 11304 5904 5848 4154 5456 1750 2382 3707 2361 3466 1411 1131 1802 1171 1749 2501 2156 1793 1206 921 339 774 519 397 2394 1243 1696 283 580
internal_count=17208 11304 5904 5848 4154 5456 1750 2382 3707 2361 3466 1411 1131 1802 1171 1749 2501 2156 1793 1206 921 339 774 519 397 2394 1243 1696 283 580
is_linear=0
shrinkage=0.1


Tree=16
num_leaves=31
num_cat=0
split_feature=1 1 1 1 1 1 1 1 0 14 0 0 14 0 9 8 14 8 8 9 14 9 14 14 0 16 9 14 8 8
split_gain=123317 19776.3 17074.6 3928.43 3098.8 2682.43 2567.46 1026.77 888.933 873.739 848.323 844.022 834.135 830.412 739.428 809.834 774.629 1029.42 715.961 965.182 707.605 814.321 663.42 658.915 653.808 648.609 627.414 610.098 590.459 578.579
threshold=49.500000000000007 66.500000000000014 32.500000000000007 80.500000000000014 41.500000000000007 57.500000000000007 21.500000000000004 96.500000000000014 1175.5000000000002 53.833333333333336 1036.5000000000002 927.50000000000011 21.166666666666668 1060.5000000000002 25.500000000000004 28.500000000000004 30.166666666666668 28.500000000000004 8.5000000000000018 25.500000000000004 23.500000000000004 21.500000000000004 25.500000000000004 44.166666666666679 891.50000000000011 48.208333333333336 17.500000000000004 57.166666666666679 31.500000000000004 21.500000000000004
decision_type=2 2 2 2 2 2 2 2 2 2 2 2 2 2 2 2 2 2 2 2 2 2 2 2 2 2 2 2 2 2
left_child=2 5 6 8 10 13 11 27 23 24 20 -1 18 -2 15 -14 17 -16 -8 29 -4 28 26 -3 -6 -7 -17 -5 -22 -20
right_child=1 3 4 7 9 25 12 -9 -10 -11 -12 -13 14 -15 16 22 -18 -19 19 -21 21 -23 -24 -25 -26 -27 -28 -29 -30 -31
leaf_value=-0.5643819074028239 0.059849396420818296 0.22131531180859343 -0.28442087229242191 0.57944169478305718 -0.14941438188457543 0.19232180081329164 -0.19235112356818132 1.0490996534004808 0.55961765371413963 0.20963269858095882 -0.072163260610748653 -0.35918875408107453 -0.047531019823957021 0.19225682862081969 -0.31381473538627586 -0.19942496568724818 -0.23385014065013651 -0.54190114513518728 -0.3171852811513578 -0.70805313015371807 0.13845752778412529 -0.19991328971651484 -0.13410745631743429 0.43340918231067871 -0.027044791055972447 0.3092713306016891 -0.52697907331431737 0.76191975939868284 -0.1390549729484572 -0.50715661466800166
leaf_weight=843 1427 164 799 362 555 766 124 80 543 133 584 263 208 709 544 98 443 311 357 123 129 1821 163 1371 2047 1245 145 371 189 291
leaf_count=843 1427 164 799 362 555 766 124 80 543 133 584 263 208 709 544 98 443 311 357 123 129 1821 163 1371 2047 1245 145 371 189 291
internal_value=5.12327e-10 0.321797 -0.222695 0.522563 -0.120227 0.181837 -0.386543 0.708928 0.44965 -0.0403673 -0.182243 -0.515588 -0.335698 0.103799 -0.298401 -0.207983 -0.341173 -0.396779 -0.415374 -0.451243 -0.204123 -0.174129 -0.290185 0.410749 -0.0531459 0.264725 -0.394879 0.671801 -0.0264791 -0.402496
internal_weight=17208 7038 10170 2891 6257 4147 3913 813 2078 2735 3522 1106 2807 2136 1912 614 1298 855 895 771 2938 2139 406 1535 2602 2011 243 733 318 648
internal_count=17208 7038 10170 2891 6257 4147 3913 813 2078 2735 3522 1106 2807 2136 1912 614 1298 855 895 771 2938 2139 406 1535 2602 2011 243 733 318 648
is_linear=0
shrinkage=0.1


Tree=17
num_leaves=31
num_cat=0
split_feature=1 1 1 1 1 1 1 14 15 9 8 14 8 15 0 8 9 14 8 9 0 9 8 14 0 9 14 8 14 8
split_gain=100173 18391.9 11093.3 4276.46 2715.39 2314.07 1577.71 1338.81 862.884 800.787 988.279 905.874 1017.47 791.39 769.234 733.628 801.215 712.697 810.633 941.987 664.352 662.455 1087.57 647.859 606.941 584.871 763.685 580.446 573.247 568.608
threshold=53.500000000000007 37.500000000000007 73.500000000000014 28.500000000000004 63.500000000000007 45.500000000000007 87.500000000000014 18.833333333333339 48.250000000000007 26.500000000000004 17.500000000000004 26.166666666666668 20.500000000000004 30.583333333333339 985.50000000000011 15.500000000000002 16.500000000000004 25.166666666666668 25.500000000000004 19.500000000000004 1157.5000000000002 28.500000000000004 31.500000000000004 47.166666666666679 1169.5000000000002 27.500000000000004 21.166666666666668 13.500000000000002 53.166666666666679 19.500000000000004
decision_type=2 2 2 2 2 2 2 2 2 2 2 2 2 2 2 2 2 2 2 2 2 2 2 2 2 2 2 2 2 2
left_child=1 3 4 7 8 14 23 15 -2 10 -9 12 -11 -7 -3 -1 -17 18 25 -20 28 22 -19 -4 -25 26 -5 -27 -6 -28
right_child=2 5 6 17 20 13 -8 9 -10 11 -12 -13 -14 -15 -16 16 -18 21 19 -21 -22 -23 -24 24 -26 27 29 -29 -30 -31
leaf_value=-0.38619642981310504 0.11881130260712401 -0.14030157806167665 0.33281350837022233 -0.25441921696840458 0.24424482173639392 -0.042102890825054556 0.75099462922607563 0.29695024464279413 0.23973063095005595 -0.31621058726504009 -0.28885825726647912 -0.30085668131953058 -0.57798885755589569 0.075767356864526916 -0.037069814483135476 -0.46766928978498995 -0.73717225944575593 0.10308585677653402 -0.28261978549112704 -0.60051070944868412 0.43443353816178193 -0.2168535261160035 -0.19353664798328038 0.4771958767267438 0.63162906033442556 -0.19177315200442357 0.18530359596602228 -0.489185346739406 0.37124024473391137 -0.13431143491940861
leaf_weight=318 1196 1864 181 496 773 921 339 30 1165 239 719 523 392 1493 1178 254 195 198 283 139 522 1185 329 653 417 122 76 142 658 208
leaf_count=318 1196 1864 181 496 773 921 339 30 1165 239 719 523 392 1493 1178 254 195 198 283 139 522 1185 329 653 417 122 76 142 658 208
internal_value=6.20011e-10 -0.174368 0.333852 -0.297574 0.250634 -0.0423106 0.559638 -0.39087 0.178477 -0.345914 -0.265395 -0.398175 -0.478837 0.030797 -0.100326 -0.502408 -0.584714 -0.219192 -0.270367 -0.387328 0.337866 -0.17537 -0.0820921 0.507784 0.537382 -0.22309 -0.179546 -0.351745 0.30264 -0.0487807
internal_weight=17208 11304 5904 5848 4314 5456 1590 2670 2361 1903 749 1154 631 2414 3042 767 449 3178 1466 422 1953 1712 527 1251 1070 1044 780 264 1431 284
internal_count=17208 11304 5904 5848 4314 5456 1590 2670 2361 1903 749 1154 631 2414 3042 767 449 3178 1466 422 1953 1712 527 1251 1070 1044 780 264 1431 284
is_linear=0
shrinkage=0.1


Tree=18
num_leaves=31
num_cat=0
split_feature=1 1 1 1 14 16 8 9 14 0 0 9 1 8 0 14 9 8 9 8 9 14 14 9 8 14 9 8 14 1
split_gain=81259.9 14227.1 10433.1 3021.63 2364.82 1848.18 1478.35 2000.62 1410.15 1124.09 938.811 919.315 918.252 892.161 886.876 885.964 1717.79 863.492 765.194 716.953 710.074 812.891 696.507 935.086 963.755 693.08 702.648 689.88 663.622 660.92
threshold=48.500000000000007 65.500000000000014 30.500000000000004 77.500000000000014 27.166666666666668 34.708333333333336 23.500000000000004 24.500000000000004 22.833333333333339 1118.5000000000002 1169.5000000000002 30.500000000000004 43.500000000000007 29.500000000000004 769.50000000000011 21.166666666666668 28.500000000000004 14.500000000000002 25.500000000000004 13.500000000000002 17.500000000000004 16.166666666666668 22.166666666666668 13.500000000000002 30.500000000000004 24.833333333333339 16.500000000000004 11.500000000000002 60.500000000000007 58.500000000000007
decision_type=2 2 2 2 2 2 2 2 2 2 2 2 2 2 2 2 2 2 2 2 2 2 2 2 2 2 2 2 2 2
left_child=2 5 8 28 6 -2 15 22 14 29 -5 13 -6 -10 -1 20 17 -17 -16 -18 21 -4 -8 -24 -25 26 -19 -22 -3 -7
right_child=1 3 4 10 12 9 7 -9 11 -11 -12 -13 -14 -15 18 16 19 25 -20 -21 27 -23 23 24 -26 -27 -28 -29 -30 -31
leaf_value=-0.55085497697613106 0.011128375703642883 0.31549391213273609 -0.36332669772494297 0.45887552826754424 -0.098462997847060529 0.094513333697389887 -0.35452649543248932 -0.53151803798973563 0.009130876483885865 0.27631348528818001 0.64374109395698231 -0.33044040088459475 0.0063781282162533037 -0.24937599338134772 -0.31577625300264983 0.26027932574874474 -0.054229048608299003 0.2059020636998343 -0.47615682427205075 -0.31889023506530029 -0.18922671060189136 -0.035116034548390997 0.059212272741931415 -0.11605588637521634 -0.40449289024134893 0.17747391450739519 -0.15207638881603303 -0.4942190476244302 0.46965119964818458 0.19899538123189645
leaf_weight=304 969 1678 104 575 2445 1507 229 236 190 745 526 871 1269 449 1014 133 161 66 421 281 159 275 159 325 180 127 324 139 335 1012
leaf_count=304 969 1678 104 575 2445 1507 229 236 190 745 526 871 1269 449 1014 133 161 66 421 281 159 275 159 325 180 127 324 139 335 1012
internal_value=6.6351e-10 0.251755 -0.187572 0.413999 -0.115468 0.132401 -0.183171 -0.272575 -0.334308 0.168403 0.547195 -0.263608 -0.0626409 -0.172512 -0.395698 -0.126112 -0.07039 0.0330356 -0.362829 -0.222486 -0.215992 -0.125179 -0.204142 -0.152277 -0.218865 -0.0254236 -0.0914954 -0.331488 0.341149 0.136489
internal_weight=17208 7347 9861 3114 6612 4233 2898 1129 3249 3264 1101 1510 3714 639 1739 1769 1092 650 1435 442 677 379 893 664 505 517 390 298 2013 2519
internal_count=17208 7347 9861 3114 6612 4233 2898 1129 3249 3264 1101 1510 3714 639 1739 1769 1092 650 1435 442 677 379 893 664 505 517 390 298 2013 2519
is_linear=0
shrinkage=0.1


Tree=19
num_leaves=31
num_cat=0
split_feature=1 1 1 1 16 0 1 14 9 14 8 14 14 8 9 14 9 14 8 1 9 8 9 14 14 8 9 14 8 8
split_gain=66152.4 12819 6721.21 2938.22 2002.42 1450.16 1184.35 863.529 849.48 1149.75 1306.56 848.066 813.209 1189.84 1104.37 815.349 778.597 872.98 1627.78 744.623 741.565 898.403 723.484 713.416 710.463 927.581 674.759 689.218 762.342 659.171
threshold=54.500000000000007 37.500000000000007 73.500000000000014 25.500000000000004 28.875000000000004 1054.5000000000002 88.500000000000014 39.833333333333336 32.500000000000007 24.833333333333339 27.500000000000004 17.833333333333339 51.500000000000007 51.500000000000007 52.500000000000007 45.500000000000007 22.500000000000004 26.833333333333339 21.500000000000004 14.500000000000002 13.500000000000002 21.500000000000004 21.500000000000004 51.166666666666679 28.500000000000004 17.500000000000004 33.500000000000007 22.500000000000004 30.500000000000004 30.500000000000004
decision_type=2 2 2 2 2 2 2 2 2 2 2 2 2 2 2 2 2 2 2 2 2 2 2 2 2 2 2 2 2 2
left_child=1 3 5 19 8 7 -4 -2 9 20 22 -5 13 -6 15 -15 -13 18 -18 -1 -3 -22 -11 29 25 -24 27 -20 -29 -7
right_child=2 4 6 11 12 23 -8 -9 -10 10 -12 16 -14 14 -16 -17 17 -19 26 -21 21 -23 24 -25 -26 -27 -28 28 -30 -31
leaf_value=-0.47745784570189082 0.0083393076739954851 -0.017569927839194515 0.41361494029429907 -0.34171274453968459 0.051228175201506403 0.35184354823359176 0.63448698723993979 0.18109219852199421 -0.19465774449742149 0.33307792214183218 -0.088185893801206033 -0.10470006338967773 0.13872455856216567 -0.17540026208933662 -0.36411363210584691 0.068187932221917436 -0.15947030716754662 -0.15615476376394341 -0.69485360122563555 -0.31407047531589105 -0.13749852063642307 -0.40880370829139417 0.244100105284076 0.3263546864398652 0.25219621795915759 -0.12400393494575912 -0.78609135377974748 -0.25950089868448301 -0.59871373643598902 0.16842290759991441
leaf_weight=340 357 314 1291 345 1571 256 299 1527 599 117 756 1042 551 255 134 298 588 1454 57 1553 495 162 95 1071 132 245 42 345 82 835
leaf_count=340 357 314 1291 345 1571 256 299 1527 599 117 756 1042 551 255 134 298 588 1454 57 1553 495 162 95 1071 132 245 42 345 82 835
internal_value=3.81015e-10 -0.136832 0.280948 -0.240961 -0.0304484 0.21249 0.45515 0.148357 -0.0885094 -0.0610557 -0.00118957 -0.191922 0.0298036 0.00322461 -0.106548 -0.0441357 -0.177607 -0.207189 -0.2738 -0.343416 -0.14398 -0.204396 0.110473 0.268377 0.0552933 -0.0211513 -0.401606 -0.368242 -0.324642 0.211462
internal_weight=17208 11572 5636 5848 5724 4046 1590 1884 2915 2316 1345 3955 2809 2258 687 553 3610 2568 1114 1893 971 657 589 2162 472 340 526 484 427 1091
internal_count=17208 11572 5636 5848 5724 4046 1590 1884 2915 2316 1345 3955 2809 2258 687 553 3610 2568 1114 1893 971 657 589 2162 472 340 526 484 427 1091
is_linear=0
shrinkage=0.1


Tree=20
num_leaves=31
num_cat=0
split_feature=1 1 1 1 14 8 9 14 14 14 8 14 9 9 0 8 14 9 8 0 9 14 8 14 8 14 8 9 8 9
split_gain=53638 9567.61 6916.14 1972.25 1680.86 1321.84 1694.32 1274.71 1162.23 881.876 1208.94 879.016 1404.49 819.84 807.916 782.988 840.833 1353.85 775.391 756.669 736.346 911.787 848.323 1016.36 743.779 707.28 738.867 696.364 692.284 684.759
threshold=48.500000000000007 65.500000000000014 30.500000000000004 82.500000000000014 28.833333333333339 23.500000000000004 24.500000000000004 52.500000000000007 17.833333333333339 24.166666666666668 33.500000000000007 21.166666666666668 28.500000000000004 59.500000000000007 1000.5000000000001 18.500000000000004 26.166666666666668 26.500000000000004 32.500000000000007 1251.5000000000002 28.500000000000004 49.166666666666679 27.500000000000004 34.166666666666679 34.500000000000007 24.833333333333339 14.500000000000002 30.500000000000004 54.500000000000007 37.500000000000007
decision_type=2 2 2 2 2 2 2 2 2 2 2 2 2 2 2 2 2 2 2 2 2 2 2 2 2 2 2 2 2 2
left_child=2 7 8 19 5 11 9 14 -1 -7 -11 -4 25 28 -2 -10 17 18 -17 -3 24 22 -22 29 -6 26 -13 -18 -9 -24
right_child=1 3 4 -5 20 6 -8 13 15 10 -12 12 -14 -15 -16 16 27 -19 -20 -21 21 -23 23 -25 -26 -27 -28 -29 -30 -31
leaf_value=-0.38942900175033701 0.017333819463416996 0.27943661303916006 -0.1780633155816404 0.4949875313033606 0.26592568200480726 -0.25090439415667498 -0.37134409168578741 0.58920636299840168 -0.10485080416105337 0.036745001971153768 -0.24089259673643301 0.21748132618752211 -0.14980681145548383 0.12294005450460462 0.11892699360147199 -0.17374910442447766 -0.028551230363307464 -0.43497588152839378 -0.37938191386633718 0.46767639398448546 0.037188737785260453 0.068821285115071393 -0.18012981699014616 -0.07459042788786252 -0.0040899483610856088 0.23604115646300017 -0.065376744467036757 -0.23859300320269941 0.24991284518173257 -0.46958327892201918
leaf_weight=668 1369 2244 677 634 140 449 457 71 361 410 254 121 592 572 1828 628 217 537 259 236 427 443 336 1260 376 172 390 579 393 108
leaf_count=668 1369 2244 677 634 140 449 457 71 361 410 254 121 592 572 1828 628 217 537 259 236 427 443 336 1260 376 172 390 579 393 108
internal_value=3.54761e-11 0.204539 -0.152393 0.337588 -0.0936875 -0.140914 -0.209224 0.106662 -0.271864 -0.142657 -0.0694597 -0.0859719 -0.0370731 0.203061 0.0754234 -0.241437 -0.263647 -0.30966 -0.233793 0.29735 -0.0398587 -0.0617153 -0.0888517 -0.120436 0.0691701 0.0606404 0.00160139 -0.181333 0.301831 -0.250537
internal_weight=17208 7347 9861 3114 6612 3522 1570 4233 3249 1113 664 1952 1275 1036 3197 2581 2220 1424 887 2480 3090 2574 2131 1704 516 683 511 796 464 444
internal_count=17208 7347 9861 3114 6612 3522 1570 4233 3249 1113 664 1952 1275 1036 3197 2581 2220 1424 887 2480 3090 2574 2131 1704 516 683 511 796 464 444
is_linear=0
shrinkage=0.1


Tree=21
num_leaves=31
num_cat=0
split_feature=1 1 1 1 14 0 9 8 14 0 14 8 0 14 14 8 0 9 8 14 14 8 14 9 9 8 1 8 14 9
split_gain=43833.6 8291.66 4582.68 2010.8 1511.91 1118.58 1080.82 1238.22 956.534 926.673 898.149 1068.42 850.662 700.758 664.091 683.908 660.066 656.906 650.54 698.788 610.079 675.117 600.229 1016.56 587.25 734.469 585.938 584.519 551.372 638.889
threshold=54.500000000000007 37.500000000000007 70.500000000000014 23.500000000000004 32.833333333333336 1251.5000000000002 24.500000000000004 26.500000000000004 26.166666666666668 970.50000000000011 26.500000000000004 33.500000000000007 1120.5000000000002 56.833333333333336 17.166666666666668 21.500000000000004 891.50000000000011 28.500000000000004 19.500000000000004 21.833333333333339 53.166666666666679 60.500000000000007 25.166666666666668 18.500000000000004 27.500000000000004 33.500000000000007 5.5000000000000009 17.500000000000004 31.500000000000004 39.500000000000007
decision_type=2 2 2 2 2 2 2 2 2 2 2 2 2 2 2 2 2 2 2 2 2 2 2 2 2 2 2 2 2 2
left_child=1 3 12 26 6 13 10 8 -8 14 18 -12 20 -4 -5 17 -6 -16 19 -3 21 -2 23 -17 25 -24 -1 -10 29 -26
right_child=2 4 5 9 16 -7 7 -9 27 -11 11 -13 -14 -15 15 22 -18 -19 -20 -21 -22 -23 24 -25 28 -27 -28 -29 -30 -31
leaf_value=-0.6787140130996705 0.11398546401570009 -0.078434235922901385 0.26122035505740265 -0.34318994156645177 -0.080741822462090676 0.5137577390275806 -0.2119252220047233 -0.29067083566451929 0.1491491396796335 -0.089086648648125877 0.22660146744970638 -0.05709887938573957 0.23744324973758335 0.38875845162030237 0.0007346423487948774 -0.15215564215505448 0.048481288663385712 -0.18860424519260671 -0.14206046521767318 0.17835856080609597 0.19889307278677487 -0.10486951593009215 0.12501856150045296 -0.37824330531580508 -0.23708072822760135 -0.16785574833875014 -0.28586265524630122 -0.06794437704457558 -0.12774270945854152 -0.58824869065971697
leaf_weight=39 1555 287 1045 261 476 332 345 397 178 1268 267 264 992 733 369 370 2331 364 602 168 824 155 139 430 425 223 1432 409 469 59
leaf_count=39 1555 287 1045 261 476 332 345 397 178 1268 267 264 992 733 369 370 2331 364 602 168 824 155 139 430 425 223 1432 409 469 59
internal_value=1.46617e-10 -0.111383 0.228695 -0.195129 -0.0258233 0.345262 -0.0762391 -0.142777 -0.0797799 -0.161135 -0.0205531 0.0855527 0.158941 0.313799 -0.19052 -0.176529 0.0265681 -0.093289 -0.0738569 0.0163816 0.128209 0.0941477 -0.205378 -0.273678 -0.163826 -0.0553985 -0.296278 -0.00211363 -0.205013 -0.279888
internal_weight=17208 11572 5636 5848 5724 2110 2917 1329 932 4377 1588 531 3526 1778 3109 2848 2807 733 1057 455 2534 1710 2115 800 1315 362 1471 587 953 484
internal_count=17208 11572 5636 5848 5724 2110 2917 1329 932 4377 1588 531 3526 1778 3109 2848 2807 733 1057 455 2534 1710 2115 800 1315 362 1471 587 953 484
is_linear=0
shrinkage=0.1


Tree=22
num_leaves=31
num_cat=0
split_feature=1 1 1 14 14 8 9 9 8 14 9 14 14 1 9 14 8 9 8 14 14 8 0 9 8 14 8 14 14 14
split_gain=35505.3 6730.55 3776.57 1609.87 1563.27 1053.45 1160.25 965.679 1304.97 895.101 883.14 1390.84 867.863 856.888 845.09 1376.46 1040.1 806.043 1229.72 954.871 801.794 1349.26 787.56 785.09 912.087 773.497 1019.62 749.396 660.102 659.725
threshold=54.500000000000007 35.500000000000007 73.500000000000014 40.500000000000007 22.500000000000004 22.500000000000004 16.500000000000004 29.500000000000004 28.500000000000004 32.166666666666679 25.500000000000004 15.833333333333334 17.833333333333339 98.500000000000014 32.500000000000007 27.833333333333339 30.500000000000004 17.500000000000004 23.500000000000004 24.833333333333339 30.166666666666668 25.500000000000004 1213.5000000000002 52.500000000000007 53.500000000000007 51.500000000000007 51.500000000000007 26.166666666666668 48.833333333333336 19.833333333333339
decision_type=2 2 2 2 2 2 2 2 2 2 2 2 2 2 2 2 2 2 2 2 2 2 2 2 2 2 2 2 2 2
left_child=1 4 9 14 5 10 12 8 -6 -2 11 -1 -7 -4 15 17 -17 29 19 -19 21 -9 -11 24 -5 26 -25 -10 -26 -3
right_child=2 3 13 23 7 6 -8 20 27 22 -12 -13 -14 -15 -16 16 -18 18 -20 -21 -22 -23 -24 25 28 -27 -28 -29 -30 -31
leaf_value=-0.29490681629463594 -0.037518564871955651 -0.16200083055273051 0.32199484510298587 0.23051937160109626 0.072497411854833146 -0.42595921765957306 -0.45188770457423805 -0.13684389524869889 -0.2371987090023327 0.15240784284962502 -0.30855260936451745 -0.036341998979984434 -0.11559724073721606 0.71036613209772925 -0.13450793079379583 0.17609172891220537 -0.020483417071840065 -0.14787670703796568 -0.28732805665815253 0.073937120483982308 -0.11120159219412895 -0.38018258960791679 0.31748596779784072 -0.01615165536971511 -0.065632975918214417 0.079747912266563734 -0.31846865949614739 -0.044374785690338585 0.15833414201955831 0.043983203168428943
leaf_weight=340 229 211 1531 373 417 134 435 486 423 3502 454 536 275 59 1285 408 791 571 385 294 745 429 315 444 317 469 149 385 225 591
leaf_count=340 229 211 1531 373 417 134 435 486 423 3502 454 536 275 59 1285 408 791 571 385 294 745 429 315 444 317 469 149 385 225 591
internal_value=4.28171e-10 -0.100245 0.205826 -0.0330304 -0.186777 -0.250814 -0.338198 -0.138523 -0.0711738 0.15451 -0.195361 -0.136698 -0.217281 0.336406 -0.065853 -0.0387162 0.0464079 -0.0884549 -0.138657 -0.0724856 -0.188223 -0.250934 0.166031 0.0422771 0.110167 -0.016216 -0.0921133 -0.145321 0.0273423 -0.0102096
internal_weight=17208 11572 5636 6513 5059 2174 844 2885 1225 4046 1330 876 409 1590 4536 3251 1199 2052 1250 865 1660 915 3817 1977 915 1062 593 808 542 802
internal_count=17208 11572 5636 6513 5059 2174 844 2885 1225 4046 1330 876 409 1590 4536 3251 1199 2052 1250 865 1660 915 3817 1977 915 1062 593 808 542 802
is_linear=0
shrinkage=0.1


Tree=23
num_leaves=31
num_cat=0
split_feature=1 1 1 14 9 0 14 14 8 8 8 14 9 14 8 9 8 9 14 9 8 8 9 14 8 14 8 9 14 8
split_gain=28817.6 5784.75 3405.45 1332.22 949.096 942.098 870.125 868.154 973.733 867.109 821.233 942.166 1382.11 773.841 868.622 751.321 749.495 905.341 718.169 717.423 810.471 700.328 687.82 970.2 802.317 633.116 813.078 949.279 624.886 1024.21
threshold=47.500000000000007 64.500000000000014 30.500000000000004 57.500000000000007 38.500000000000007 881.50000000000011 21.500000000000004 32.833333333333336 27.500000000000004 52.500000000000007 49.500000000000007 47.166666666666679 43.500000000000007 57.166666666666679 51.500000000000007 47.500000000000007 15.500000000000002 10.500000000000002 64.166666666666671 59.500000000000007 69.500000000000014 29.500000000000004 55.500000000000007 50.166666666666679 70.500000000000014 30.833333333333339 17.500000000000004 32.500000000000007 24.833333333333339 33.500000000000007
decision_type=2 2 2 2 2 2 2 2 2 2 2 2 2 2 2 2 2 2 2 2 2 2 2 2 2 2 2 2 2 2
left_child=2 7 6 10 -5 -4 16 -2 -9 -6 11 -3 -13 14 -10 -12 -1 -18 19 20 -11 -14 23 -16 -25 26 -7 28 -28 -30
right_child=1 3 5 4 9 25 -8 8 13 18 15 12 21 -15 22 -17 17 -19 -20 -21 -22 -23 -24 24 -26 -27 27 -29 29 -31
leaf_value=-0.15271644562766273 -0.020651525734493859 0.13844277828352358 -0.13717978403816908 0.78321355150805583 0.46464806638182482 0.0088241530602789255 -0.15327333508815286 0.27862217660294847 0.10368714221945868 0.35852384869940579 0.17937096510651718 0.55943550512023366 0.48331028178053081 0.20093243747845399 -0.06300694899012646 -0.036694101830082843 -0.097603074095305609 -0.35250061648775843 0.38282025435284989 0.011007298736645601 -0.01105281208188106 0.20523127600254187 -0.16251493956101071 0.22230123413728187 -0.10841418196602415 -0.0041463515305483452 -0.16006556219364745 -0.29941405492834744 0.021818084844479751 -0.19437166737222109
leaf_weight=461 873 532 1677 45 282 756 1825 256 1624 248 553 174 106 429 507 227 169 794 296 159 78 622 235 311 96 1839 716 240 772 306
leaf_count=461 873 532 1677 45 282 756 1825 256 1624 248 553 174 106 429 507 227 169 794 296 159 78 622 235 311 96 1839 716 240 772 306
internal_value=3.38941e-10 0.144598 -0.115815 0.243869 0.333386 -0.0729631 -0.198986 0.068455 0.0909507 0.314344 0.19907 0.243988 0.306238 0.0759464 0.0566103 0.11649 -0.257572 -0.307768 0.260073 0.185159 0.270098 0.245721 -0.0099283 0.0293035 0.144295 -0.0496985 -0.0797238 -0.112635 -0.0876483 -0.0395493
internal_weight=17208 7653 9555 3322 1108 6306 3249 4331 3458 1063 2214 1434 902 3202 2773 780 1424 963 781 485 326 728 1149 914 407 4629 2790 2034 1794 1078
internal_count=17208 7653 9555 3322 1108 6306 3249 4331 3458 1063 2214 1434 902 3202 2773 780 1424 963 781 485 326 728 1149 914 407 4629 2790 2034 1794 1078
is_linear=0
shrinkage=0.1


Tree=24
num_leaves=31
num_cat=0
split_feature=1 14 1 8 9 14 9 1 8 14 9 8 9 14 9 9 0 14 14 14 14 8 8 9 14 0 14 9 8 9
split_gain=23452.4 4982.46 2269.59 1868.06 1676.67 2254.89 1474.83 1370.56 1226.06 1488.93 1627.94 872.887 1169.31 1052.32 1005.17 867.754 765.156 692.364 640.159 631.806 602.753 612.834 587.296 580.629 563.388 558.223 514.574 512 502.202 488.991
threshold=55.500000000000007 26.166666666666668 75.500000000000014 28.500000000000004 28.500000000000004 16.166666666666668 15.500000000000002 43.500000000000007 11.500000000000002 22.166666666666668 17.500000000000004 32.500000000000007 34.500000000000007 42.166666666666679 22.500000000000004 18.500000000000004 1054.5000000000002 66.833333333333357 30.166666666666668 21.166666666666668 31.500000000000004 44.500000000000007 14.500000000000002 37.500000000000007 18.833333333333339 1163.5000000000002 22.500000000000004 32.500000000000007 9.5000000000000018 20.500000000000004
decision_type=2 2 2 2 2 2 2 2 2 2 2 2 2 2 2 2 2 2 2 2 2 2 2 2 2 2 2 2 2 2
left_child=1 3 16 4 5 28 19 11 -7 10 -10 12 29 14 -13 -11 -2 -4 -14 -5 -16 27 24 26 -6 -9 -24 -22 -1 -3
right_child=2 7 17 6 22 8 -8 25 9 15 -12 13 18 -15 20 -17 -18 -19 -20 -21 21 -23 23 -25 -26 -27 -28 -29 -30 -31
leaf_value=-0.12674713472233098 0.08699073656219225 0.43942719582027118 0.26368061898236805 -0.27341498855395979 -0.40275110518842033 0.13888304620426642 -0.36006156070364848 0.016891596753978687 -0.023267831377942409 0.19231081370520409 -0.24679692332470987 0.024961315299559566 -0.19015614096067512 0.0010837752437694952 -0.27582770571565607 -0.031464725789189123 0.17449760781183785 0.5212990180973226 0.0013977022967853791 -0.017231666498252605 0.14063862516471853 -0.24494879480564233 -0.41701795768981081 -0.5464903342227142 -0.080705627355063259 0.20539560150355102 -0.19602555909784891 -0.1154716965477872 -0.34338141692530244 0.070352120939952509
leaf_weight=153 1802 38 1229 159 66 309 675 2929 608 225 702 271 344 669 477 754 2243 114 354 244 99 297 147 81 307 166 372 369 356 649
leaf_count=153 1802 38 1229 159 66 309 675 2929 608 225 702 271 344 669 477 754 2243 114 354 244 99 297 147 81 307 166 372 369 356 649
internal_value=4.7822e-10 -0.0788195 0.172911 -0.152606 -0.121672 -0.0857979 -0.269684 -0.0216912 -0.04809 -0.0733302 -0.143052 -0.0639411 -0.00184994 -0.103353 -0.149531 0.0199648 0.135514 0.285548 -0.0930071 -0.118306 -0.187605 -0.132596 -0.236225 -0.297481 -0.13769 0.027002 -0.258619 -0.0612945 -0.278263 0.0907668
internal_weight=17208 11820 5388 5158 4080 3107 1078 6662 2598 2289 1310 3567 1385 2182 1513 979 4045 1343 698 403 1242 765 973 600 373 3095 519 468 509 687
internal_count=17208 11820 5388 5158 4080 3107 1078 6662 2598 2289 1310 3567 1385 2182 1513 979 4045 1343 698 403 1242 765 973 600 373 3095 519 468 509 687
is_linear=0
shrinkage=0.1


Tree=25
num_leaves=31
num_cat=0
split_feature=14 1 0 14 9 8 9 8 8 0 9 8 14 8 14 8 14 9 14 14 8 9 1 8 9 14 8 8 14 8
split_gain=19033.1 3680.27 3037.41 1472.06 1763.55 1411.25 1369.44 1274.43 1190.38 1130.1 1072.34 1279.62 1069.57 1594.39 927.031 1180.8 910.982 1001.4 882.866 813.718 879.941 754.24 632.908 599.402 697.056 867.011 596.144 577.535 796.653 573.896
threshold=42.500000000000007 62.500000000000007 871.50000000000011 29.500000000000004 32.500000000000007 27.500000000000004 24.500000000000004 35.500000000000007 22.500000000000004 1169.5000000000002 50.500000000000007 51.500000000000007 52.166666666666679 44.500000000000007 15.16666666666667 14.500000000000002 21.500000000000004 27.500000000000004 21.500000000000004 22.500000000000004 29.500000000000004 9.5000000000000018 85.500000000000014 51.500000000000007 42.500000000000007 53.166666666666679 13.500000000000002 42.500000000000007 34.500000000000007 26.500000000000004
decision_type=2 2 2 2 2 2 2 2 2 2 2 2 2 2 2 2 2 2 2 2 2 2 2 2 2 2 2 2 2 2
left_child=2 10 16 6 7 -6 14 -5 18 23 11 -2 13 -12 -4 -16 26 29 -8 21 -21 -17 -11 24 -3 -26 -1 28 -7 -18
right_child=1 9 3 4 5 27 8 -9 -10 22 12 -13 -14 -15 15 19 17 -19 -20 20 -22 -23 -24 -25 25 -27 -28 -29 -30 -31
leaf_value=-0.11665830840534382 0.28689595376084137 0.36208443591010431 -0.25321144728310485 0.20847808560602241 0.073211523061091049 -0.21772576147437853 -0.23821096976813463 0.0033473479362844342 -0.23880963908579719 0.24473749206725706 0.07726231600236462 0.063232795160885355 0.091690877836444251 -0.1631853723374096 0.15128300046986518 0.047233986515217485 0.068948179864439005 -0.18928634683072418 -0.030872553004389014 0.083353406896182217 -0.084160491320232456 -0.17692466094901363 0.42434152703644945 0.11489452578754134 0.0830239372335589 0.27784694846019392 -0.29200019974557401 -0.25351601770463666 -0.014608570878357086 -0.10584377011786235
leaf_weight=262 358 253 186 559 530 295 271 661 836 840 498 896 877 618 340 195 285 1181 848 642 613 652 256 1217 486 431 746 266 559 551
leaf_count=262 358 253 186 559 530 295 271 661 836 840 498 896 877 618 340 195 285 1181 848 642 613 652 256 1217 486 431 746 266 559 551
internal_value=3.64014e-10 0.131226 -0.0842864 -0.0499852 0.0061754 -0.0612294 -0.0851544 0.0973376 -0.148532 0.202626 0.054637 0.127086 0.00905217 -0.0558888 -0.0380072 -0.0216157 -0.168798 -0.130003 -0.0810859 -0.0495822 0.00153188 -0.125318 0.286689 0.164028 0.215136 0.174593 -0.246425 -0.124849 -0.084772 -0.0462556
internal_weight=17208 6730 10478 7453 2870 1650 4583 1220 1955 3483 3247 1254 1993 1116 2628 2442 3025 2017 1119 2102 1255 847 1096 2387 1170 917 1008 1120 854 836
internal_count=17208 6730 10478 7453 2870 1650 4583 1220 1955 3483 3247 1254 1993 1116 2628 2442 3025 2017 1119 2102 1255 847 1096 2387 1170 917 1008 1120 854 836
is_linear=0
shrinkage=0.1


Tree=26
num_leaves=31
num_cat=0
split_feature=14 1 14 9 9 8 8 8 14 14 14 9 14 8 8 14 9 14 9 8 9 14 14 9 9 14 9 9 8 8
split_gain=15421.7 3348.72 2302.27 2292.49 1703 1795.85 1628.03 1470.06 1132.39 1122.29 1060.19 1146.46 1055.14 1213.14 984.782 926.04 896.209 880.566 866.325 860.662 1048.15 1082.83 865.538 1465.13 854.569 799.274 710.772 706.454 683.351 653.342
threshold=40.500000000000007 61.500000000000007 24.500000000000004 29.500000000000004 13.500000000000002 23.500000000000004 22.500000000000004 29.500000000000004 16.166666666666668 30.166666666666668 60.500000000000007 47.500000000000007 30.500000000000004 44.500000000000007 45.500000000000007 18.833333333333339 25.500000000000004 51.166666666666679 19.500000000000004 51.500000000000007 49.500000000000007 48.166666666666679 52.166666666666679 47.500000000000007 67.500000000000014 30.166666666666668 61.500000000000007 37.500000000000007 35.500000000000007 59.500000000000007
decision_type=2 2 2 2 2 2 2 2 2 2 2 2 2 2 2 2 2 2 2 2 2 2 2 2 2 2 2 2 2 2
left_child=2 19 4 7 15 8 -5 25 -6 18 11 -3 -8 27 17 -1 -10 -13 -9 20 -2 -22 23 -21 -23 -4 -19 -14 -17 -12
right_child=1 10 3 6 5 -7 12 9 16 -11 29 14 13 -15 -16 28 -18 26 -20 22 21 24 -24 -25 -26 -27 -28 -29 -30 -31
leaf_value=-0.11646467746899601 0.22806591433977219 0.21211055342084323 0.084606134132049052 0.019423623531076472 -0.31713147513170281 -0.28493625885181706 -0.24151795909145599 0.011923449695447688 -0.034564444285734373 0.065188014014594023 0.40561813869153279 0.043348551003058851 0.018618605149321728 -0.31299783107466422 0.0048444214541142668 0.1269437659482513 -0.17298777636904264 0.3956771500043425 -0.18120560096478777 0.033390911695030001 -0.049661814627996653 0.26761526786138079 0.075420788461422 -0.19848271388462715 0.00055066945175418543 0.34452411235482605 0.14321940184260409 -0.12698075808764284 -0.22228716985250896 0.2126601953247417
leaf_weight=502 434 1494 957 855 262 989 730 392 1065 682 274 334 616 221 728 406 834 204 570 675 573 279 805 457 210 135 246 726 65 488
leaf_count=502 434 1494 957 855 262 989 730 392 1065 682 274 334 616 221 728 406 834 204 570 675 573 279 805 457 210 135 246 726 65 488
internal_value=2.26335e-10 0.111598 -0.0803055 -0.0401544 -0.137606 -0.173325 -0.0983457 0.0267997 -0.122245 -0.032941 0.176689 0.149983 -0.142259 -0.0958999 0.0885948 -0.0219679 -0.095357 0.166363 -0.102509 0.0401546 0.0971288 0.0436197 -0.00384822 -0.0602188 0.152925 0.116739 0.257667 -0.0601483 0.0787484 0.282044
internal_weight=17208 7201 10007 5884 4123 3150 3148 2736 2161 1644 3768 3006 2293 1563 1512 973 1899 784 962 3433 1496 1062 1937 1132 489 1092 450 1342 471 762
internal_count=17208 7201 10007 5884 4123 3150 3148 2736 2161 1644 3768 3006 2293 1563 1512 973 1899 784 962 3433 1496 1062 1937 1132 489 1092 450 1342 471 762
is_linear=0
shrinkage=0.1


Tree=27
num_leaves=31
num_cat=0
split_feature=14 14 8 0 8 9 14 9 14 9 9 9 14 14 8 14 8 9 9 14 9 8 8 9 9 9 14 8 8 14
split_gain=12704.6 2898.01 1962.65 1873.84 1649.14 1395.23 1643.36 1231.33 1463.05 1160.29 1084.31 1052.23 1568.35 1009.95 1685.7 986.222 1103.7 955.559 880.039 874.092 845.296 829.611 797.611 850.617 764.856 752.784 734.956 728.093 693 909.917
threshold=46.500000000000007 27.166666666666668 35.500000000000007 1052.5000000000002 30.500000000000004 22.500000000000004 18.833333333333339 29.500000000000004 33.500000000000007 54.500000000000007 47.500000000000007 43.500000000000007 38.166666666666679 59.500000000000007 44.500000000000007 20.500000000000004 19.500000000000004 22.500000000000004 35.500000000000007 32.833333333333336 18.500000000000004 9.5000000000000018 68.500000000000014 58.500000000000007 11.500000000000002 41.500000000000007 54.500000000000007 11.500000000000002 49.500000000000007 57.166666666666679
decision_type=2 2 2 2 2 2 2 2 2 2 2 2 2 2 2 2 2 2 2 2 2 2 2 2 2 2 2 2 2 2
left_child=1 4 7 22 5 6 21 19 25 -10 28 12 17 14 -12 27 -17 -4 -18 -3 -6 -1 23 -2 -8 -9 -25 -7 -5 -30
right_child=3 2 11 10 20 15 24 8 9 -11 13 -13 -14 -15 -16 16 18 -19 -20 -21 -22 -23 -24 26 -26 -27 -28 -29 29 -31
leaf_value=0.052691176391497098 0.14526904371476915 0.10106146389946268 0.02506833814749368 0.39214965544099628 -0.13617616267816018 -0.12051794688286784 0.20542722206997374 -0.035777402262144119 0.14502895185237305 -0.10732669623680094 0.21856555472898287 -0.17914482656275149 0.056108888725727529 0.23602839207400877 -0.0036429824019872702 -0.017949116338646699 -0.14018017743376274 -0.17500277128293615 -0.43500914579933198 0.37864113834714802 -0.32553720782472628 -0.18411534450340239 -0.068215466627124244 -0.074172981840872149 0.0047067256561536038 -0.24493569505343027 0.11039611929566553 -0.35483004096719184 0.1498091529220836 0.41502271094721954
leaf_weight=186 1064 807 339 289 475 228 225 974 823 234 578 679 988 675 834 835 973 807 113 132 468 723 410 463 1215 209 404 317 574 167
leaf_count=186 1064 807 339 289 475 228 225 974 823 234 578 679 988 675 834 835 973 807 113 132 468 723 410 463 1215 209 404 317 574 167
internal_value=1.41332e-10 -0.0585615 -0.00987816 0.126071 -0.109223 -0.0855396 -0.0303853 0.0439581 0.00366323 0.0891621 0.17685 -0.0707191 -0.03622 0.135415 0.0873177 -0.138077 -0.104393 -0.115819 -0.170858 0.140082 -0.230154 -0.13566 0.0584604 0.0853569 0.0360693 -0.0727293 0.0118315 -0.256806 0.260806 0.209581
internal_weight=17208 11750 5992 5458 5758 4815 2349 3179 2240 1057 3117 2813 2134 2087 1412 2466 1921 1146 1086 939 943 909 2341 1931 1440 1183 867 545 1030 741
internal_count=17208 11750 5992 5458 5758 4815 2349 3179 2240 1057 3117 2813 2134 2087 1412 2466 1921 1146 1086 939 943 909 2341 1931 1440 1183 867 545 1030 741
is_linear=0
shrinkage=0.1


Tree=28
num_leaves=31
num_cat=0
split_feature=14 0 14 9 8 14 8 9 14 9 8 14 8 9 9 14 14 9 8 9 9 14 8 14 1 8 8 14 8 9
split_gain=10431.5 1917.02 1883.54 1933.21 1611.22 1638.17 1330.05 1366.05 1356.29 1429.76 1175.33 1121.49 955.315 1065.72 924.674 863.071 780.477 743.14 810.709 742.993 725.379 745.043 1135.89 618.954 885.839 591.447 557.648 554.699 552.462 549.171
threshold=42.500000000000007 1169.5000000000002 21.166666666666668 22.500000000000004 22.500000000000004 30.166666666666668 51.500000000000007 57.500000000000007 55.500000000000007 47.500000000000007 40.500000000000007 54.500000000000007 10.500000000000002 16.500000000000004 37.500000000000007 48.500000000000007 26.166666666666668 36.500000000000007 35.500000000000007 41.500000000000007 6.5000000000000009 28.833333333333339 33.500000000000007 24.500000000000004 34.500000000000007 46.500000000000007 67.500000000000014 14.500000000000002 15.500000000000002 38.500000000000007
decision_type=2 2 2 2 2 2 2 2 2 2 2 2 2 2 2 2 2 2 2 2 2 2 2 2 2 2 2 2 2 2
left_child=2 6 12 20 16 17 7 15 9 26 14 -9 27 -14 -7 19 -5 18 23 -2 -4 22 28 -6 -25 -23 -8 -1 -22 -18
right_child=1 -3 3 4 5 10 8 11 -10 -11 -12 -13 13 -15 -16 -17 29 -19 -20 -21 21 25 -24 24 -26 -27 -28 -29 -30 -31
leaf_value=-0.19704374453285711 0.26452093794941905 0.20499419611878694 0.32902127383720309 -0.051008523912049387 -0.23976182135442459 0.065754675627532566 0.09141899896640665 -0.027950606221662455 0.10792379815509656 -0.13075295896308337 -0.15216890070007585 0.1937892490673486 -0.099169708988889493 -0.25557373235754383 -0.080289225835310396 0.30020765670139182 0.15008398085341701 -0.36556026709194367 -0.33569250006528828 0.065297841667290274 0.27721089739352467 0.20599751452589443 -0.14383196882270896 0.0040745482298154417 -0.17700176689858466 -0.061033846950585696 -0.079678082686256285 0.046234683919964097 0.027079090232124299 -0.016119665688098368
leaf_weight=128 283 1324 84 934 358 910 771 724 1225 777 771 333 859 884 828 487 489 182 211 553 96 347 421 531 550 109 253 350 1101 335
leaf_count=128 283 1324 84 934 358 910 771 724 1225 777 771 333 859 884 828 487 489 182 211 553 96 347 421 531 550 109 253 350 1101 335
internal_value=9.45558e-11 0.0971494 -0.0623989 -0.0404096 -0.0691919 -0.101901 0.0707368 0.126666 0.0267472 -0.0284673 -0.0494081 0.0419069 -0.144148 -0.178493 -0.00382205 0.194384 0.0115751 -0.173791 -0.152638 0.132738 0.0409357 0.0292678 -0.00255064 -0.125797 -0.0880549 0.142168 0.049146 -0.018911 0.0471398 0.0825133
internal_weight=17208 6730 10478 8257 6099 4341 5406 2380 3026 1801 2509 1057 2221 1743 1738 1323 1758 1832 1650 836 2158 2074 1618 1439 1081 456 1024 478 1197 824
internal_count=17208 6730 10478 8257 6099 4341 5406 2380 3026 1801 2509 1057 2221 1743 1738 1323 1758 1832 1650 836 2158 2074 1618 1439 1081 456 1024 478 1197 824
is_linear=0
shrinkage=0.1


Tree=29
num_leaves=31
num_cat=0
split_feature=14 14 8 9 8 14 14 8 8 14 9 14 9 9 8 14 9 14 9 9 14 9 9 14 8 9 1 14 8 9
split_gain=8587.68 2027.92 1632.67 1559.9 1750.31 1564.82 1380.47 1257.48 1188.72 1151.32 1129.49 1210.47 1434.24 1051.34 1007.97 994.094 853.882 840.185 1029.08 802.938 1011.07 750.4 713.108 712.564 693.193 699.352 724.945 812.727 678.185 625.047
threshold=46.500000000000007 25.500000000000004 27.500000000000004 58.500000000000007 55.500000000000007 55.500000000000007 64.166666666666671 19.500000000000004 41.500000000000007 54.833333333333336 22.500000000000004 34.166666666666679 47.500000000000007 25.500000000000004 45.500000000000007 17.833333333333339 34.500000000000007 14.500000000000002 13.500000000000002 27.500000000000004 33.500000000000007 7.5000000000000009 34.500000000000007 57.166666666666679 37.500000000000007 36.500000000000007 51.500000000000007 49.500000000000007 68.500000000000014 28.500000000000004
decision_type=2 2 2 2 2 2 2 2 2 2 2 2 2 2 2 2 2 2 2 2 2 2 2 2 2 2 2 2 2 2
left_child=1 7 19 4 9 16 8 17 -5 24 -4 22 14 15 -13 -9 -6 -1 -19 -3 -21 -17 -12 -10 -2 -26 -27 -28 -18 -20
right_child=3 2 10 6 5 -7 -8 13 23 -11 11 12 -14 -15 -16 21 28 18 29 20 -22 -23 -24 -25 25 26 27 -29 -30 -31
leaf_value=-0.2101171618466284 0.34562235774743139 0.17736796211057662 0.057158356768363242 0.13905201872840733 0.1625195159978135 0.19067177266265228 0.23489285343502408 -0.29150705613567002 -0.11452934317737025 0.42324090750246751 -0.095606505545810419 0.084347368222722485 -0.14635057380457347 -0.25715104436599895 -0.066611484556408862 0.11858115948603623 -0.0037678815284449187 0.1965146676125466 0.001856049924925508 -0.021531470568932249 0.15597765429881474 -0.10343925593687571 -0.24855384313572038 0.031009684943599753 0.36921102999794214 0.37695936590506895 -0.035229711691247022 0.16756983928150856 -0.23254118066943863 -0.12924237401609348
leaf_weight=255 227 459 885 481 246 730 302 261 695 244 1098 1066 704 627 756 168 632 202 1066 1164 443 1622 422 652 132 101 311 542 163 552
leaf_count=255 227 459 885 481 246 730 302 261 695 244 1098 1066 704 627 756 168 632 202 1066 1164 443 1622 422 652 132 101 311 542 163 552
internal_value=-1.79819e-11 -0.0481471 -0.0139071 0.103651 0.14642 0.0784216 0.0368273 -0.0985527 0.00410527 0.223765 -0.0451745 -0.0675582 -0.0251286 -0.143829 0.0217102 -0.109186 -0.000293672 -0.0401191 -0.0163007 0.0607199 0.0274023 -0.0826016 -0.13807 -0.0440828 0.186696 0.153476 0.123626 0.09363 -0.0506736 -0.0428697
internal_weight=17208 11750 6997 5458 3328 1771 2130 4753 1828 1557 4931 4046 2526 2678 1822 2051 1041 2075 1820 2066 1607 1790 1520 1347 1313 1086 954 853 795 1618
internal_count=17208 11750 6997 5458 3328 1771 2130 4753 1828 1557 4931 4046 2526 2678 1822 2051 1041 2075 1820 2066 1607 1790 1520 1347 1313 1086 954 853 795 1618
is_linear=0
shrinkage=0.1


Tree=30
num_leaves=31
num_cat=0
split_feature=14 0 14 9 8 14 9 8 8 9 14 8 14 8 9 9 1 8 9 14 8 14 8 8 8 8 9 8 14 9
split_gain=7132.44 1553.82 1215.71 1697.55 1316.18 1052.09 1129.15 861.044 814.256 812.571 1117.35 1024.9 795.652 1021.89 946.951 865.951 769.556 750.656 874.034 719.874 686 713.563 728.683 603.661 555.068 542.089 500.267 500.238 465.862 459.428
threshold=39.166666666666679 1062.5000000000002 21.166666666666668 32.500000000000007 21.500000000000004 28.500000000000004 18.500000000000004 39.500000000000007 33.500000000000007 50.500000000000007 49.166666666666679 51.500000000000007 58.166666666666679 41.500000000000007 55.500000000000007 46.500000000000007 31.500000000000004 10.500000000000002 13.500000000000002 49.833333333333336 12.500000000000002 27.500000000000004 35.500000000000007 58.500000000000007 28.500000000000004 43.500000000000007 38.500000000000007 38.500000000000007 27.833333333333339 29.500000000000004
decision_type=2 2 2 2 2 2 2 2 2 2 2 2 2 2 2 2 2 2 2 2 2 2 2 2 2 2 2 2 2 2
left_child=2 9 17 4 28 6 27 -7 16 11 25 -2 13 -3 23 19 -8 -1 -19 -15 -5 -22 -23 -14 -20 -11 -25 -6 -4 -13
right_child=1 12 3 20 5 7 8 -9 -10 10 -12 29 14 15 -16 -17 -18 18 24 -21 21 22 -24 26 -26 -27 -28 -29 -30 -31
leaf_value=-0.010499480322673605 0.17429753393313277 0.18002487097434694 0.067587690239239481 0.08518609888798119 0.059672643946397479 0.090451249680881474 0.003561668154780347 -0.073678387349721888 -0.26058161985709383 -0.037653828479135724 0.040313467999955999 0.18508412920603795 0.61758974955153112 0.035122180815019152 0.13462896641729605 -0.025024765194616501 -0.14809899904423193 -0.05771955465306125 -0.18251861666769509 0.20537238671129501 -0.22466288025498216 -0.050286447509898018 -0.19501490815544575 0.65667723725581995 -0.42514527582456002 -0.21121467198819938 0.20842485900290986 -0.15278004198758441 0.26455803574300812 -0.0098113037426997909
leaf_weight=478 689 903 972 174 691 973 582 476 321 418 1381 140 67 544 647 836 787 629 1010 457 512 1257 481 29 104 316 176 132 137 889
leaf_count=478 689 903 972 174 691 973 582 476 321 418 1381 140 67 544 647 836 787 629 1010 457 512 1257 481 29 104 316 176 132 137 889
internal_value=9.60344e-11 0.073316 -0.0565339 -0.0372782 -0.00437449 -0.0313283 -0.070458 0.0365343 -0.117235 0.0288208 -0.0126762 0.0799072 0.119927 0.0929209 0.200446 0.0501039 -0.0836238 -0.121514 -0.151959 0.112849 -0.106113 -0.120907 -0.0903408 0.357003 -0.20517 -0.112375 0.271836 0.0255976 0.0919204 0.0167051
internal_weight=17208 7492 9716 7495 5071 3962 2513 1449 1690 3833 2115 1718 3659 2740 919 1837 1369 2221 1743 1001 2424 2250 1738 272 1114 734 205 823 1109 1029
internal_count=17208 7492 9716 7495 5071 3962 2513 1449 1690 3833 2115 1718 3659 2740 919 1837 1369 2221 1743 1001 2424 2250 1738 272 1114 734 205 823 1109 1029
is_linear=0
shrinkage=0.1


Tree=31
num_leaves=31
num_cat=0
split_feature=14 14 9 8 14 9 14 8 8 8 8 14 9 9 9 14 8 14 8 9 9 14 9 9 8 9 14 8 8 9
split_gain=5995.53 1598.41 1390.94 1254.89 1164.46 1552.85 927.267 1584.29 1021.96 902.153 893.151 893.061 863.002 843.308 835.966 795.949 1275.28 731.553 715.553 659.139 586.456 703.963 624.466 569.983 629.454 566.558 535.774 524.448 514.605 543.555
threshold=47.833333333333336 23.166666666666668 28.500000000000004 49.500000000000007 64.166666666666671 59.500000000000007 33.166666666666679 44.500000000000007 17.500000000000004 18.500000000000004 70.500000000000014 55.833333333333336 58.500000000000007 54.500000000000007 9.5000000000000018 32.166666666666679 36.500000000000007 54.500000000000007 28.500000000000004 30.500000000000004 32.500000000000007 14.500000000000002 17.500000000000004 15.500000000000002 26.500000000000004 46.500000000000007 38.166666666666679 50.500000000000007 35.500000000000007 39.500000000000007
decision_type=2 2 2 2 2 2 2 2 2 2 2 2 2 2 2 2 2 2 2 2 2 2 2 2 2 2 2 2 2 2
left_child=1 9 15 12 5 10 8 13 -4 20 11 19 -2 18 -11 16 23 -14 -8 -5 21 -1 -23 -3 -25 -9 -20 -17 29 -10
right_child=3 2 6 4 -6 -7 7 25 28 14 -12 -13 17 -15 -16 27 -18 -19 26 -21 -22 22 -24 24 -26 -27 -28 -29 -30 -31
leaf_value=-0.1748825178512049 0.23944815840644124 0.18469632760078636 0.037438297584973357 0.31124957742169501 0.22443925720913152 -0.080105770577027502 0.18802276481559177 -0.058009799034364012 -0.081446006501832632 -0.00011197849413993197 -0.053657116761198269 0.22068018376982459 0.0096816144460121767 -0.086173135567365097 -0.178277378150099 0.19989037134514098 -0.12765451800429597 0.19654201095806756 -0.044574196560246609 0.043383598802207025 -0.23171919698712148 0.12893657200095571 -0.03470978455186477 0.087292072080229044 -0.028579404468014987 -0.20739430302476897 0.086837693423293782 0.013030844925228378 -0.26740734664155691 -0.23486303003238784
leaf_weight=245 789 259 465 100 371 825 399 795 1318 322 400 528 464 428 1446 426 530 382 513 1129 146 326 819 893 987 373 785 232 233 280
leaf_count=245 789 259 465 100 371 825 399 795 1318 322 400 528 464 428 1446 426 530 382 513 1129 146 326 819 893 987 373 785 232 233 280
internal_value=1.85216e-10 -0.0377117 -0.0156954 0.0923891 0.0573639 0.0365775 -0.0461693 -0.0121579 -0.0949497 -0.0971236 0.081206 0.111909 0.164218 0.0392659 -0.145829 0.0354974 0.0112115 0.0940559 0.0709028 0.065179 -0.041062 -0.0210361 0.011883 0.0456196 0.0264595 -0.105716 0.0349006 0.134007 -0.128571 -0.108328
internal_weight=17208 12220 8916 4988 3353 2982 5589 3293 2296 3304 2157 1757 1635 2125 1768 3327 2669 846 1697 1229 1536 1390 1145 2139 1880 1168 1298 658 1831 1598
internal_count=17208 12220 8916 4988 3353 2982 5589 3293 2296 3304 2157 1757 1635 2125 1768 3327 2669 846 1697 1229 1536 1390 1145 2139 1880 1168 1298 658 1831 1598
is_linear=0
shrinkage=0.1


Tree=32
num_leaves=31
num_cat=0
split_feature=14 14 9 8 9 8 8 14 9 14 9 14 14 8 9 14 9 9 8 1 8 14 8 14 8 14 9 14 1 14
split_gain=4947.86 1515.04 1276.48 1130.28 1256.01 1077.44 1013.29 1196.5 955.033 837.893 930.142 821.157 781.895 757.158 756.981 924.054 777.62 720.258 680.354 709.723 675.305 669.845 647.337 579.884 882.737 570.967 557.555 554.28 531.418 530.205
threshold=49.166666666666679 26.166666666666668 29.500000000000004 60.500000000000007 55.500000000000007 25.500000000000004 47.500000000000007 35.833333333333336 58.500000000000007 64.833333333333357 38.500000000000007 60.500000000000007 59.500000000000007 22.500000000000004 36.500000000000007 17.166666666666668 17.500000000000004 18.500000000000004 10.500000000000002 42.500000000000007 32.500000000000007 22.166666666666668 41.500000000000007 34.166666666666679 39.500000000000007 53.500000000000007 72.500000000000014 18.833333333333339 46.500000000000007 40.500000000000007
decision_type=2 2 2 2 2 2 2 2 2 2 2 2 2 2 2 2 2 2 2 2 2 2 2 2 2 2 2 2 2 2
left_child=1 5 23 4 11 14 7 13 20 10 25 -2 22 -4 15 -1 -17 27 -18 21 -9 -20 -6 24 -3 -5 28 -7 -24 -8
right_child=3 2 6 9 12 17 29 8 -10 -11 -12 -13 -14 -15 -16 16 18 -19 19 -21 -22 -23 26 -25 -26 -27 -28 -29 -30 -31
leaf_value=-0.13514243747033261 0.19502022963247334 0.064526073914349169 0.034188244081201809 0.020743701042469243 0.14069873897558183 -0.23421301810364975 -0.29613634125129984 0.16820248246584887 -0.10642595156843115 0.19960092858781514 -0.042479508099917712 0.6939270063358195 0.20028042881491551 -0.1022067675463449 -0.23742268348070597 0.096502352719606485 0.10673484337070852 -0.20594885544104446 -0.099601602221991437 -0.21407321198590795 0.034023502490886003 0.032245745538083029 0.26361563655547798 0.14476662378812136 -0.11764444608406213 0.32669691283963931 -0.21553737797999176 -0.03203405566541976 -0.0086712543601126253 -0.088302041054983821
leaf_weight=682 1111 1389 571 123 411 171 140 537 349 234 1151 34 379 1417 188 591 297 826 746 247 1244 797 80 587 329 121 116 655 689 996
leaf_count=682 1111 1389 571 123 411 171 140 537 349 234 1151 34 379 1417 188 591 297 826 746 247 1244 797 80 587 329 121 116 655 689 996
internal_value=7.61105e-11 -0.031664 -0.00308327 0.0908072 0.129116 -0.0732106 -0.0303019 -0.00723608 0.0448391 0.0244902 -0.00488323 0.209835 0.0739378 -0.0630309 -0.0421501 -0.0312241 -0.00475948 -0.139919 -0.033435 -0.0566922 0.0744806 -0.031499 0.0369904 0.0589587 0.0296401 0.172466 -0.0111724 -0.0738895 0.0196551 -0.113915
internal_weight=17208 12759 7559 4449 2820 5200 5254 4118 2130 1629 1395 1145 1675 1988 3548 3360 2678 1652 2087 1790 1781 1543 1296 2305 1718 244 885 826 769 1136
internal_count=17208 12759 7559 4449 2820 5200 5254 4118 2130 1629 1395 1145 1675 1988 3548 3360 2678 1652 2087 1790 1781 1543 1296 2305 1718 244 885 826 769 1136
is_linear=0
shrinkage=0.1


Tree=33
num_leaves=31
num_cat=0
split_feature=14 9 14 8 8 14 9 8 14 9 8 9 8 1 8 14 8 9 14 8 9 1 14 14 9 14 8 9 1 14
split_gain=4097.93 1106 1200.37 1191.1 936.353 924.612 1206.88 1134.72 1184.8 942.53 895.944 844.152 834.642 764.603 741.351 1036.47 726.879 634.135 618.467 600.309 583.364 905.496 580.251 577.484 657.835 562.717 604.33 546.681 474.176 866.862
threshold=42.500000000000007 41.500000000000007 54.500000000000007 40.500000000000007 61.500000000000007 18.833333333333339 37.500000000000007 16.500000000000004 27.833333333333339 13.500000000000002 37.500000000000007 63.500000000000007 31.500000000000004 37.500000000000007 48.500000000000007 53.500000000000007 68.500000000000014 55.500000000000007 33.166666666666679 64.500000000000014 24.500000000000004 45.500000000000007 64.833333333333357 23.500000000000004 24.500000000000004 30.166666666666668 25.500000000000004 28.500000000000004 52.500000000000007 49.166666666666679
decision_type=2 2 2 2 2 2 2 2 2 2 2 2 2 2 2 2 2 2 2 2 2 2 2 2 2 2 2 2 2 2
left_child=5 14 3 -3 11 -1 7 -7 9 -9 18 -4 13 23 -2 19 17 28 20 -16 -10 -22 -6 24 -11 -8 -27 -25 -5 -30
right_child=1 2 4 16 22 6 25 8 10 12 -12 -13 -14 -15 15 -17 -18 -19 -20 -21 21 -23 -24 27 -26 26 -28 -29 29 -31
leaf_value=-0.11974877367049425 0.25725402633373168 0.090202637829936066 0.22771471376398772 0.090931730674256986 -0.02299507573738313 0.090953093066292443 -0.20592879130109157 0.059063720468431717 0.14621417689405147 -0.0054102315602483613 -0.0474118006255334 0.068795755145599366 -0.18653528146403897 -0.137813189448139 0.098026606064825647 0.2894069513078556 -0.30230688208069367 -0.10406177582350665 0.17951746766412924 -0.090960425544151319 0.059096768290470308 -0.15625201213917286 0.16321191653502565 0.11729265255960829 -0.17533892702069376 0.046536817487802029 -0.10976146546615961 -0.043836605544759912 -0.21449244269356132 0.029904553431767567
leaf_weight=1252 387 961 670 479 743 958 407 550 351 558 1063 667 623 817 584 217 104 737 394 236 656 278 216 434 385 327 1016 409 200 529
leaf_count=1252 387 961 670 479 743 958 407 550 351 558 1063 667 623 817 584 217 104 737 394 236 656 278 216 434 385 327 1016 409 200 529
internal_value=1.5857e-10 0.0608904 0.0398893 -0.00165162 0.0943485 -0.0391098 -0.0281668 -0.0106679 -0.025604 -0.0619355 0.0244281 0.148434 -0.0825646 -0.0576803 0.139143 0.0950648 -0.0447321 -0.0309595 0.0699109 0.0436352 0.036304 -0.00500062 0.0189452 -0.0210238 -0.0747873 -0.102922 -0.0717052 0.0391172 0.0136402 -0.0371454
internal_weight=17208 6730 5306 3010 2296 10478 9226 7476 6518 3776 2742 1337 3226 2603 1424 1037 2049 1945 1679 820 1285 934 959 1786 943 1750 1343 843 1208 729
internal_count=17208 6730 5306 3010 2296 10478 9226 7476 6518 3776 2742 1337 3226 2603 1424 1037 2049 1945 1679 820 1285 934 959 1786 943 1750 1343 843 1208 729
is_linear=0
shrinkage=0.1


Tree=34
num_leaves=31
num_cat=0
split_feature=14 9 14 8 8 8 14 8 9 14 9 14 9 14 9 8 9 9 14 8 14 9 1 8 8 1 9 8 1 8
split_gain=3413.5 960.754 939.617 1179.59 830.334 826.331 809.754 1047.7 793.074 790.08 706.064 637.744 619.281 611.037 950.283 570.508 587.408 566.539 560.944 552.039 550.256 568.537 750.996 544.789 543.27 536.095 524.103 514.747 537.429 514.227
threshold=46.500000000000007 52.500000000000007 24.500000000000004 29.500000000000004 55.500000000000007 23.500000000000004 59.500000000000007 53.500000000000007 21.500000000000004 57.500000000000007 15.500000000000002 14.16666666666667 22.500000000000004 31.500000000000004 40.500000000000007 28.500000000000004 73.500000000000014 6.5000000000000009 18.500000000000004 42.500000000000007 30.500000000000004 38.500000000000007 34.500000000000007 10.500000000000002 65.500000000000014 33.500000000000007 38.500000000000007 18.500000000000004 50.500000000000007 59.500000000000007
decision_type=2 2 2 2 2 2 2 2 2 2 2 2 2 2 2 2 2 2 2 2 2 2 2 2 2 2 2 2 2 2
left_child=2 4 5 12 -2 8 7 15 11 -6 -5 -1 -4 19 29 -3 -17 -7 -10 -12 21 22 -14 -20 -8 26 -25 -24 -29 -15
right_child=1 6 3 10 9 17 24 -9 18 -11 13 -13 20 14 -16 16 -18 -19 23 -21 -22 -23 27 25 -26 -27 -28 28 -30 -31
leaf_value=-0.12858399709990329 0.18259365193773547 0.26030306536542336 0.15801981611102248 0.10580013340125319 0.021982071222045416 0.049459345602436262 0.16889000227345752 -0.097815081751105037 -0.21546774973788044 0.2114375134482713 -0.090798331463196297 0.055572741082079075 0.12660469168147964 0.034764095123714936 -0.096566743980549513 0.051980971557863187 -0.15620484613125621 -0.15038975945922206 0.079622852277313166 -0.34608251268535362 0.082887476124411469 -0.15364127767379168 0.069627975586064705 -0.0067946890234237625 0.0093996064004328098 -0.19761372781762931 -0.36993027178700583 -0.055173752399446274 -0.36360882946680628 -0.15565830238163472
leaf_weight=230 1004 115 383 305 1043 159 566 768 275 279 1225 1031 406 1667 1182 1187 153 1315 234 91 945 244 326 525 343 311 43 636 62 155
leaf_count=230 1004 115 383 305 1043 159 566 768 275 279 1225 1031 406 1667 1182 1187 153 1315 234 91 945 244 326 525 343 311 43 636 62 155
internal_value=7.64622e-11 0.0653487 -0.0303552 -0.00956364 0.114034 -0.0688167 0.0291924 -0.00332211 -0.035422 0.0619655 -0.0412475 0.0219835 0.0392498 -0.0516293 -0.0267367 0.0465546 0.0282105 -0.128832 -0.0875749 -0.108451 0.0218809 -0.0125582 0.0115147 -0.0559751 0.108708 -0.0920729 -0.0342856 -0.0341167 -0.0825706 0.0185646
internal_weight=17208 5458 11750 7627 2326 4123 3132 2223 2649 1322 4625 1261 3002 4320 3004 1455 1340 1474 1388 1316 2619 1674 1430 1113 909 879 568 1024 698 1822
internal_count=17208 5458 11750 7627 2326 4123 3132 2223 2649 1322 4625 1261 3002 4320 3004 1455 1340 1474 1388 1316 2619 1674 1430 1113 909 879 568 1024 698 1822
is_linear=0
shrinkage=0.1


Tree=35
num_leaves=31
num_cat=0
split_feature=14 14 9 8 9 14 8 9 14 8 14 9 8 14 8 14 8 1 9 9 1 8 9 8 14 8 14 1 1 9
split_gain=2896.09 919.631 1070.67 848.098 941.932 710.292 702.495 652.784 615.009 599.168 1212.82 783.76 616.911 576.307 563.208 744.397 656.227 601.162 597.6 533.491 493.4 676.857 724.448 485.571 473.039 486.116 466.202 543.038 456.257 439.414
